{"5":{"Convolution":{"w":[[[[-0.010572165]],[[0.06781572]],[[-0.07161159]],[[0.18003973]],[[-0.01759795]],[[0.75067294]],[[0.23987533]],[[-0.023676258]],[[-0.050247487]],[[0.00564223]],[[-0.0029211612]],[[0.28023198]],[[0.082798265]],[[-0.12160436]],[[-0.0018999134]],[[-0.004955746]],[[-0.0043624816]],[[0.0023686544]],[[0.47308123]],[[-0.35149118]],[[-0.21199653]],[[-0.0047643627]],[[-0.08778414]],[[-0.005178524]],[[0.16832359]],[[0.2845824]],[[0.07240086]],[[0.037997186]],[[0.037642676]],[[0.0898577]],[[0.29564342]],[[0.19463797]]],[[[0.02391498]],[[0.023723694]],[[-0.7982058]],[[-0.13433143]],[[0.13931353]],[[-0.021689117]],[[-0.08127138]],[[0.11938987]],[[0.15093707]],[[-0.00018490739]],[[0.19439742]],[[-0.0472136]],[[-0.17049661]],[[0.2853601]],[[0.001415584]],[[0.0022235864]],[[0.0048914202]],[[-0.0027331759]],[[0.18251064]],[[0.58502144]],[[0.2999549]],[[-0.032901764]],[[-0.14893088]],[[0.0003640691]],[[-0.18121056]],[[0.12864769]],[[-0.2889782]],[[0.44496158]],[[-0.1874845]],[[-0.052370414]],[[0.3344511]],[[-0.13419467]]],[[[-0.016273864]],[[0.8176149]],[[0.15775272]],[[0.5968694]],[[-0.36230734]],[[-0.30973786]],[[-0.4063848]],[[0.09824525]],[[-0.24133316]],[[-0.0016960746]],[[-0.050218828]],[[0.47589263]],[[0.11966745]],[[-0.05388626]],[[0.005200278]],[[0.008060154]],[[0.012772533]],[[0.0058478834]],[[0.088682145]],[[0.072791934]],[[0.020612024]],[[0.7962989]],[[0.11197971]],[[-0.00048659366]],[[-0.0021756736]],[[-0.48464116]],[[-0.062737726]],[[0.70047927]],[[0.113461815]],[[0.023672625]],[[-0.18900137]],[[-0.0016673282]]],[[[0.036922276]],[[-0.077399224]],[[-0.13967638]],[[0.13325442]],[[0.48142588]],[[-0.49723902]],[[0.05292108]],[[0.068833716]],[[-0.2948142]],[[-0.0007954634]],[[0.033544138]],[[-0.4597583]],[[0.27064595]],[[0.34046003]],[[0.002866617]],[[0.0019141957]],[[0.0058953334]],[[0.010821639]],[[-0.106065094]],[[-0.38708156]],[[-0.324244]],[[0.43704042]],[[-0.110635296]],[[0.0017013133]],[[-0.15820462]],[[0.027307238]],[[-0.41785794]],[[-0.44364432]],[[-0.2892406]],[[0.32931527]],[[0.012004671]],[[-0.062588304]]],[[[-0.02840378]],[[-0.48217812]],[[0.37446985]],[[-0.04546473]],[[0.24335551]],[[-0.86468035]],[[0.09593019]],[[-0.40454262]],[[0.23186173]],[[-0.010728463]],[[0.20119001]],[[-0.13181576]],[[-0.28231737]],[[-0.05761093]],[[-0.0068650786]],[[0.011166265]],[[-0.0046259775]],[[0.000415029]],[[0.5364335]],[[0.17920297]],[[-0.24704601]],[[0.42042434]],[[-0.27599847]],[[-0.002571261]],[[0.08046523]],[[0.08280022]],[[0.26532596]],[[0.044775367]],[[0.09778416]],[[-0.04475356]],[[0.5715411]],[[0.4532732]]],[[[-0.00087107]],[[-0.19017231]],[[-0.02239637]],[[-0.5440556]],[[-0.3118531]],[[-0.236233]],[[0.415593]],[[0.44392648]],[[0.42999437]],[[0.0025448117]],[[0.0466254]],[[0.4349556]],[[-0.03821457]],[[0.06771133]],[[-0.00023220853]],[[0.0034986872]],[[-0.009296102]],[[-0.0024252427]],[[0.013656357]],[[-0.059038043]],[[-0.14239176]],[[0.385473]],[[-0.080625445]],[[-0.004559514]],[[0.106877744]],[[0.14897253]],[[-0.108323075]],[[0.26309738]],[[0.000117187774]],[[0.062774085]],[[-0.5511528]],[[-0.055579815]]],[[[0.00011641745]],[[0.37661058]],[[-0.10974065]],[[-0.3451839]],[[-0.40956455]],[[0.019194122]],[[0.040247064]],[[-0.73981947]],[[0.16720453]],[[0.0015159543]],[[-0.06529652]],[[0.17612402]],[[-0.11222244]],[[0.15023804]],[[0.00014513047]],[[-0.002456185]],[[0.0065649464]],[[0.005347776]],[[-0.25082394]],[[0.033403028]],[[0.0024054125]],[[0.3057045]],[[0.1332597]],[[-0.004516675]],[[0.09821662]],[[0.17420016]],[[-0.23038948]],[[0.049646117]],[[0.08952483]],[[0.19877292]],[[0.15119576]],[[0.18524738]]],[[[-0.054964263]],[[0.11056561]],[[0.26171035]],[[-0.050838165]],[[0.5762719]],[[0.6272989]],[[-0.24874608]],[[0.21336813]],[[-0.1321936]],[[-0.0030616778]],[[0.19176625]],[[-0.66925174]],[[-0.2700503]],[[-0.0018420082]],[[0.00072067697]],[[0.00063751993]],[[0.0006241337]],[[-0.0002840922]],[[-0.20481947]],[[0.41771245]],[[-0.18237238]],[[0.59877956]],[[-0.26091352]],[[-0.0047456385]],[[0.34424543]],[[0.046628874]],[[0.06757691]],[[0.33882323]],[[0.45757484]],[[0.105954275]],[[-0.1944462]],[[-0.19071805]]],[[[0.056673277]],[[-0.03944332]],[[0.49075887]],[[-0.23579086]],[[0.156842]],[[0.49028978]],[[-0.16254273]],[[-0.18534747]],[[0.2441968]],[[0.012061055]],[[-0.005040717]],[[-0.036464326]],[[0.39597714]],[[0.30617338]],[[-0.008027695]],[[0.005995884]],[[0.025506226]],[[-0.00400424]],[[-0.0021554644]],[[0.18419895]],[[0.06522826]],[[0.39189667]],[[0.08105492]],[[0.019574132]],[[-0.5810958]],[[0.012614604]],[[-0.20303364]],[[0.012278828]],[[-0.60617894]],[[-0.061640315]],[[-0.2682152]],[[0.38429627]]],[[[-0.01397977]],[[-0.36197028]],[[-0.052595828]],[[-0.28442627]],[[-0.013697732]],[[0.060428686]],[[-0.11721837]],[[0.09016521]],[[0.25697404]],[[-0.0015938567]],[[-0.024410615]],[[0.049334403]],[[0.5694221]],[[-0.0320311]],[[0.0047584497]],[[-0.009498276]],[[0.012306302]],[[0.00026255773]],[[-0.116847835]],[[-0.090687044]],[[-0.12175935]],[[0.27809584]],[[0.055153154]],[[0.004952949]],[[0.108154796]],[[-0.23507044]],[[0.1094484]],[[0.42325878]],[[0.18812956]],[[0.060323745]],[[0.824441]],[[-0.14798485]]],[[[0.015733209]],[[0.16917212]],[[-0.10854614]],[[-0.10707334]],[[-0.068204775]],[[-0.044619355]],[[-0.15285687]],[[-0.21222359]],[[0.09229786]],[[0.0012395146]],[[0.52140313]],[[0.061880227]],[[0.1059716]],[[-0.15582527]],[[0.0014655765]],[[0.0021616428]],[[0.00069995836]],[[-0.00079160574]],[[-0.061887886]],[[-0.07722449]],[[-0.035962064]],[[-0.072051644]],[[-1.0354351]],[[0.0018577657]],[[-0.22530194]],[[-0.15887107]],[[0.18064025]],[[0.09735986]],[[-0.059968878]],[[-0.16358194]],[[-0.07073305]],[[0.05539707]]],[[[0.012600283]],[[-0.21190628]],[[0.36353582]],[[0.17569889]],[[-0.11294474]],[[-0.25482765]],[[-0.25862655]],[[0.15014274]],[[-0.7502684]],[[-0.0030904708]],[[0.019582903]],[[0.051778063]],[[-0.34173423]],[[-0.036140904]],[[-0.0037056005]],[[0.008685876]],[[-0.017179856]],[[0.005941255]],[[-0.4393536]],[[-0.29865184]],[[0.1349075]],[[0.14739235]],[[-0.109518364]],[[-0.0014757263]],[[-0.17412484]],[[0.31146395]],[[-0.07662201]],[[0.6644258]],[[-0.23800719]],[[-0.119125314]],[[0.2948582]],[[-0.11111371]]],[[[-0.006077585]],[[0.603996]],[[-0.014912834]],[[-0.16521825]],[[0.12428494]],[[-0.47143462]],[[-0.49514037]],[[0.1954678]],[[0.38173828]],[[-0.00020190592]],[[-0.100040734]],[[-0.43054304]],[[0.48119286]],[[-0.13277029]],[[0.00017392493]],[[-0.0026364303]],[[0.00047619402]],[[-0.0077588684]],[[0.14227942]],[[-0.16281408]],[[0.062113937]],[[-0.51221615]],[[0.13423434]],[[0.005951681]],[[0.108447194]],[[0.4130511]],[[0.1578571]],[[-0.22954261]],[[0.08098344]],[[-0.04174401]],[[0.19386198]],[[-0.041606598]]],[[[-0.021981133]],[[-0.33960497]],[[-0.045789186]],[[0.03350025]],[[0.15035868]],[[-0.0857353]],[[0.14641291]],[[-0.4286556]],[[-0.35917994]],[[-0.00090832566]],[[-0.049101897]],[[0.025590893]],[[0.54185075]],[[-0.16887146]],[[-0.0004028543]],[[-0.0019349956]],[[-0.00789595]],[[0.008612391]],[[-0.016231788]],[[0.22111247]],[[0.1906582]],[[-0.24887665]],[[0.15201573]],[[-0.00023298345]],[[0.18338118]],[[0.19353208]],[[0.016304731]],[[0.22663172]],[[0.2947771]],[[-0.09380796]],[[-0.57728016]],[[0.233696]]],[[[-0.0051075183]],[[-0.45851904]],[[-0.03783813]],[[0.24180137]],[[-0.5640218]],[[0.2029266]],[[-1.0116544]],[[0.07100844]],[[-0.019134315]],[[-0.0010965578]],[[0.07715995]],[[0.42873505]],[[0.015136535]],[[0.04195997]],[[-0.0006935792]],[[-0.009495478]],[[-0.009991198]],[[-0.0030440146]],[[0.16997716]],[[0.17764112]],[[-0.13596335]],[[0.032708082]],[[-0.07888392]],[[-0.0048769927]],[[0.09125144]],[[0.08321146]],[[-0.008100162]],[[-0.5183757]],[[0.07537499]],[[0.067048535]],[[-0.11435163]],[[-0.12422796]]],[[[-0.0017082184]],[[-0.277636]],[[-0.2936665]],[[-0.19708624]],[[0.39031914]],[[-0.021250801]],[[-0.5699238]],[[-0.24192096]],[[0.45343214]],[[0.00069908507]],[[-0.26794046]],[[-0.31382155]],[[-0.4108494]],[[-0.13501512]],[[-0.002254321]],[[-0.00027213708]],[[-0.003140462]],[[0.0037670752]],[[0.25832915]],[[-0.49503008]],[[0.048780687]],[[0.040586613]],[[0.3625489]],[[-0.00088175974]],[[0.06426017]],[[-0.23492289]],[[-0.085163966]],[[0.7566289]],[[-0.022321856]],[[-0.029455788]],[[-0.4725071]],[[0.13781606]]]],"info":{"o_pg":16,"i_pg":32,"s":[1,1],"k":[1,1],"i":[32,112,112],"o":[16,112,112]},"bias":[-2.1412926,0.42736247,-1.2820753,1.0352228,-0.10121345,-0.46251702,-0.66123563,-1.7953349,-0.83883,-1.6566671,1.6135722,-0.42670754,-0.7190912,-0.17103899,1.6371256,1.4176129]}},"1":{"Convolution":{"w":[[[[0.0018972903,-0.000621808,0.0021329592],[0.0047169146,-0.003652744,0.000986703],[0.0015179312,-0.005374053,-0.002119125]],[[0.0011499577,-0.0008510791,0.0021692887],[0.0028776766,-0.0047288486,-0.0003001461],[0.0016332326,-0.004742164,-0.0011329182]],[[-0.0036309685,-0.0029019027,-0.001433471],[-0.0016134927,-0.004211159,-0.0021897089],[-0.003817618,-0.0048130783,-0.0034843918]]],[[[-0.027336318,-0.009141513,0.009191424],[0.05595254,0.16294515,0.018018376],[-0.080655,-0.11983158,-0.016452458]],[[-0.028886281,0.022808637,0.000787671],[0.11442577,0.32129836,0.04362929],[-0.1443781,-0.26112846,-0.03297306]],[[-0.006779986,-0.0046871006,0.011295444],[0.01805219,0.074299596,0.00066330755],[-0.026663985,-0.06715638,0.0004417596]]],[[[-0.022961095,0.021333838,-0.0017238747],[-0.08842149,0.16164067,-0.06884651],[-0.1470724,0.2020079,-0.06549384]],[[-0.02642876,0.041782487,-0.009229577],[-0.18022269,0.29359272,-0.11719813],[-0.23197716,0.32340387,-0.10314182]],[[-0.004785325,-0.004777809,0.007788152],[-0.04417661,0.08229655,-0.037589137],[-0.060765132,0.09492357,-0.034647558]]],[[[0.0011838686,-0.022781909,0.042882454],[0.031162374,0.10268711,-0.14651066],[0.010078413,0.15892243,-0.17292233]],[[-0.004981791,-0.035082385,0.043616816],[0.02490949,0.26727805,-0.31810313],[0.026260115,0.3334198,-0.36266664]],[[-0.008932064,-0.0149353985,0.013094691],[0.02215168,0.0441909,-0.035512295],[-0.0005227909,0.046397477,-0.06365737]]],[[[-0.004993209,0.0019029313,0.0019877893],[0.00068585546,-0.0058036596,-0.005419217],[0.00837019,-0.0078107133,-0.022319641]],[[0.0014932891,0.0026816374,-0.00095891056],[0.005460231,-0.015032417,-0.018697744],[0.014642827,-0.015449584,-0.03698953]],[[-0.00005388012,0.0018733118,-0.0025320097],[-0.0004676946,-0.0043009967,-0.0044451905],[0.0018568195,-0.004080865,-0.007759152]]],[[[0.0167744,0.017810622,-0.025641467],[0.013083209,0.06829649,0.026250776],[-0.016652372,0.065455146,0.07057272]],[[0.00092024327,-0.014361657,0.00053104665],[-0.003927926,-0.026411552,-0.015499979],[-0.0023635346,-0.02120841,-0.015659494]],[[-0.014947795,-0.006397197,0.025183497],[-0.0040793456,-0.041947246,-0.012425889],[0.017808499,-0.04107877,-0.050575092]]],[[[-0.0028518916,-0.00299994,-0.00019723766],[0.06562497,-0.020359628,-0.030917894],[0.018000633,-0.017987086,-0.0116083855]],[[-0.009087961,-0.0022234318,0.002966422],[0.1340591,-0.039690048,-0.067284025],[0.0360873,-0.03573848,-0.01405555]],[[0.0017247814,0.0016536985,-0.00038649247],[0.033077106,-0.010106016,-0.016992807],[0.0080324,-0.007008419,-0.0035793493]]],[[[0.002414919,-0.0022000307,-0.012465254],[-0.0013777578,0.008870504,0.023041172],[-0.0014360307,0.015660698,0.037792485]],[[-0.0020518813,-0.009813089,-0.0188915],[0.00080872176,0.01969591,0.03825464],[0.00067240663,0.036103483,0.061031792]],[[-0.0008527079,-0.002296493,-0.004232381],[0.0004776413,0.0017726267,0.01112598],[0.002086202,0.0076231053,0.014156531]]],[[[0.0049339,0.004104243,-0.0124436915],[-0.017229289,0.065208055,-0.049065102],[0.0022343514,0.06875271,-0.065001085]],[[-0.003574243,0.015767077,-0.019667597],[-0.012175065,0.102668926,-0.08694143],[0.0011518429,0.09888323,-0.09281398]],[[0.0046231076,-0.0013435088,-0.0006483681],[-0.011031911,0.037726346,-0.03130748],[0.0008240147,0.03774137,-0.03685955]]],[[[0.000013349365,0.00054487295,0.00061605126],[0.00019785902,0.0000601357,0.00036456785],[0.00008809032,-0.00012785471,0.00018830583]],[[0.00029946116,0.00040620274,0.00023106544],[0.0002970962,0.00026321653,0.00044571178],[0.00023609001,0.00009678012,0.00052021]],[[0.0010519583,0.0008221898,0.0008075036],[0.00058950554,0.00057432574,0.0009768701],[0.0003739365,0.00048980233,0.00036940078]]],[[[-0.024511123,-0.07383977,-0.041993376],[-0.10051617,-0.10984095,-0.03835428],[0.011495862,-0.003791808,-0.028686782]],[[0.10524239,0.12394999,0.12534223],[0.024088165,0.06413568,0.11404445],[0.10999962,0.14441735,0.08005734]],[[0.011585469,-0.06568127,-0.10422057],[-0.10563277,-0.14473315,-0.13005246],[-0.020325003,-0.032759454,-0.07752811]]],[[[-0.0059199827,0.0015171291,0.0037237497],[0.0019146231,0.0060147713,-0.0012755725],[-0.005699476,0.01920328,0.014684811]],[[0.0002972894,0.003395259,-0.0010880586],[0.0005122906,0.008871171,-0.0037679404],[-0.00814873,0.02743613,0.027079431]],[[-0.0006609143,-0.0002680686,-0.00009098851],[0.0015023486,0.0015267783,-0.0023955945],[-0.007100905,0.011067914,0.00837774]]],[[[-0.0725434,-0.14462505,-0.037488885],[0.11278748,0.15179864,0.039655603],[-0.023725012,-0.020436224,0.011270403]],[[-0.14288658,-0.29917216,-0.09789328],[0.2303145,0.30186346,0.0751258],[-0.054895535,-0.046626613,-0.007463881]],[[-0.02642922,-0.056983743,-0.014303307],[0.050146516,0.064856924,0.011304423],[-0.010858289,-0.013041508,0.008396482]]],[[[0.11129312,0.004203079,0.0021303112],[0.01844345,-0.016936442,0.00011126197],[0.004647939,-0.00004869057,-0.0055306186]],[[0.1356583,0.018822629,0.010044113],[0.0024726386,-0.011889993,0.013605549],[-0.011577122,0.0005044176,-0.008972305]],[[0.06247128,-0.019225828,-0.010868161],[-0.033914275,-0.019526934,-0.00060637837],[0.0046185968,0.024250984,-0.008847942]]],[[[0.0010263494,0.00037748952,0.00084647443],[0.00025550864,0.0016181563,0.000059290287],[0.0013173794,0.0008384505,0.0010994953]],[[-0.000045155008,0.00046137624,-0.00017480673],[0.00035226677,-0.00017908827,-0.00011321922],[0.000999009,0.0003617944,-0.00011412571]],[[0.00057691784,-0.00015869633,-0.00011390471],[0.00046306313,0.00003413851,-0.00022590843],[0.00050991646,0.0008814009,-0.00079033175]]],[[[0.0007545645,0.0011805715,0.0013173553],[0.0014538169,0.00097631494,0.00097534625],[0.0013088288,0.00023238955,0.0006428168]],[[-0.00048761768,-0.00035576607,-0.00056528],[-0.00041914193,0.00010760944,0.00036449655],[0.00014533773,0.00020270565,0.00020622405]],[[0.00029402674,-0.00034080152,-0.00020954479],[0.00011513588,0.000154725,0.000012593789],[0.00053551974,0.0005299041,-0.00008251618]]],[[[-0.000035464138,0.00007104813,0.00062772876],[0.00018843912,0.0013826725,0.0030786952],[0.00008820534,-0.00036573206,0.00020193952]],[[-0.00033829678,-0.00027405607,0.001109681],[-0.0002164485,0.0021909305,0.004374896],[-0.0006931939,-0.00034008152,-0.0000422563]],[[0.00020088875,-0.0007365215,-0.00016197801],[-0.00015689751,0.00045853545,0.0026660725],[-0.000015106127,-0.0010539793,-0.001018521]]],[[[0.000085706175,0.00016837566,0.00015443028],[-0.00010236332,-0.00029699306,0.000017386674],[-0.00016985743,-0.00017709617,0.000023541654]],[[-0.00034520696,-0.00019549494,-0.00012914918],[-0.0003606361,-0.00059640815,-0.000019705716],[-0.0005375248,-0.00041099428,-0.00066688255]],[[0.00021125244,0.00005827852,0.000051040377],[0.000061007227,-0.00023062222,0.00003363969],[-0.00018505327,-0.00015663511,-0.00007365722]]],[[[0.004493962,-0.0009854424,-0.0029403581],[-0.002035715,0.00034673943,0.0026524675],[-0.004531276,0.006027487,0.014234753]],[[0.0021870474,-0.0020693264,-0.008362663],[-0.0012130673,0.008704809,0.0025939033],[-0.0049494845,0.016430814,0.019219328]],[[0.0012243104,0.00056783395,-0.0033454918],[-0.0013542997,-0.001874413,0.00193734],[-0.00083187537,0.0010251617,0.011410375]]],[[[0.0027117964,-0.050187387,-0.06252116],[-0.052286547,-0.11232288,-0.12600277],[-0.027889391,-0.068819255,-0.07906074]],[[0.029590372,0.028739637,0.023001365],[0.020453215,0.017765965,0.014679094],[0.030644633,0.021053804,0.011593512]],[[-0.02739068,0.023235431,0.028061736],[0.02059863,0.102010295,0.10864427],[0.0039737276,0.06530553,0.058379944]]],[[[-0.0046764296,-0.09114123,0.0011250603],[0.0050388398,-0.046325967,-0.0020134717],[0.028570704,0.026287653,0.034994606]],[[-0.061426863,-0.098693766,-0.03755545],[-0.025267102,-0.026458008,-0.022177296],[-0.033666834,0.008312908,-0.0148287695]],[[0.056543,-0.0409206,0.037173137],[0.016930891,-0.036642656,-0.00051227753],[0.0030944392,0.006212916,0.011119956]]],[[[-0.021259267,-0.013777058,0.04260762],[0.0385359,-0.047746252,-0.0077887294],[-0.018640667,0.010258375,-0.013915517]],[[-0.017934805,-0.025148235,0.074661635],[0.04680519,-0.091169454,-0.010635096],[-0.021187287,-0.0011483832,-0.023296969]],[[-0.013829165,0.00043611723,0.016546208],[0.02537751,-0.02695421,0.003866772],[-0.017299445,0.021431189,-0.015938308]]],[[[0.024584576,0.06999391,0.056896694],[0.120082386,0.12860067,0.06694243],[-0.051090863,-0.0075058867,0.1004132]],[[-0.09364448,-0.15276434,-0.11785992],[-0.042530593,-0.15278831,-0.19439699],[-0.12018234,-0.18595923,-0.11373969]],[[-0.035864983,0.092745714,0.110024594],[0.15262903,0.23864155,0.15250283],[0.04080299,0.060683385,0.06468646]]],[[[0.00026743364,0.000094279836,0.000016842974],[0.00014936457,0.000049991544,-0.00025156295],[0.00006308293,-0.00041363158,-0.0006791174]],[[0.00050024485,0.0002758243,0.000059735885],[0.0006494816,0.00037314804,0.00016515312],[0.00009798052,0.00007741982,-0.000107621316]],[[0.00048829097,0.0005407329,0.00019722838],[0.0008629194,0.00030875765,-0.000010135695],[0.000002421907,-0.000016201955,-0.0005082497]]],[[[0.018586025,0.021725219,0.0041596107],[-0.0034606631,-0.026080532,-0.037187193],[-0.010591476,0.0028610595,0.03395905]],[[0.039998736,-0.0029450469,-0.061288256],[0.01840824,-0.04784011,-0.083392136],[0.018457644,0.026356032,0.05924282]],[[-0.04828756,-0.049461793,-0.11312229],[-0.0071167806,-0.030666068,-0.074857995],[-0.03524701,0.003986852,0.009407267]]],[[[0.002896127,0.007203125,-0.004273326],[-0.023107525,0.06200815,0.11354621],[0.017431948,-0.063759625,-0.10401897]],[[0.006435271,0.012347728,0.0031611212],[-0.038379405,0.1036286,0.19281438],[0.031040614,-0.11926862,-0.18899319]],[[0.00811484,-0.0050492077,-0.0038511902],[-0.012879249,0.030438168,0.05520409],[0.010952518,-0.036954332,-0.04458715]]],[[[-0.0017760247,0.013140339,-0.014528979],[0.010586022,-0.021323005,-0.023919763],[0.0020909244,-0.015552179,-0.059638567]],[[0.014375348,0.0072911885,-0.004038211],[0.016190035,-0.06310269,-0.051753215],[0.033691395,-0.041328806,-0.084421605]],[[-0.0116941305,0.016793147,0.022391448],[0.0029034512,-0.00076548307,0.0013335225],[0.0025280444,0.0042479746,-0.039633337]]],[[[0.051375758,0.015988102,-0.008602069],[-0.05751575,-0.0325607,0.03589724],[0.05340015,0.05428163,0.0058804606]],[[0.055899445,-0.046588276,-0.044539955],[-0.17449303,-0.19408348,-0.06977049],[0.06262663,0.040398277,-0.031079777]],[[0.027908273,0.018617148,0.0026419829],[-0.038737547,0.0030706185,0.028936282],[0.03702682,0.054629587,-0.011790809]]],[[[0.00741749,0.018286377,0.044391856],[0.021989498,0.020792346,0.036385342],[0.009156518,-0.04046632,-0.01734647]],[[-0.007559427,-0.014445331,-0.006498081],[0.011575567,-0.019778585,-0.002998269],[0.025776893,-0.034347404,0.016430806]],[[-0.02670525,-0.021540688,-0.028860189],[-0.029306453,-0.066080436,-0.060059074],[-0.010197326,-0.07025709,-0.028717734]]],[[[0.0080835,-0.0037965383,0.008111191],[0.024346704,-0.031830125,-0.057236947],[0.09239771,-0.021625098,-0.09753743]],[[0.029897364,0.011165994,0.03266886],[0.02156578,-0.07469229,-0.10246265],[0.10673143,-0.04485995,-0.12963092]],[[0.005037366,0.01480399,0.05115587],[0.038973358,-0.016707689,-0.025770018],[0.10075211,-0.0393004,-0.11441246]]],[[[-0.06498459,0.0102373585,0.07574182],[0.06216382,0.17454292,0.1828961],[0.09329276,0.12515162,0.04112028]],[[-0.006069487,-0.03436908,-0.037498865],[-0.040768977,-0.07840036,-0.0940347],[-0.04956595,-0.08105355,-0.081983626]],[[0.06028195,0.021870414,-0.037387457],[0.0004201255,-0.049331784,-0.065423265],[-0.062265497,-0.0503274,0.028943175]]],[[[0.00028638417,0.002381044,-0.0044839894],[-0.01242479,0.00032751105,0.018985767],[-0.0050127027,0.004375853,0.028862508]],[[0.0036591685,0.0024415976,-0.0035684258],[-0.0024173465,0.007916403,0.027454523],[0.005838043,0.011773699,0.03786667]],[[-0.0036002998,-0.005882381,-0.020164141],[-0.00796942,0.0037444811,0.009533009],[-0.0010804612,0.006647035,0.016993705]]]],"info":{"o_pg":32,"i_pg":3,"s":[2,2],"k":[3,3],"i":[3,224,224],"o":[32,112,112]},"bias":[-0.0859973,0.5604113,0.34893098,0.28295204,0.9677532,0.6525436,0.4950716,0.56894743,0.6177246,0.00011074674,-0.33595958,0.95821506,0.44606385,-0.37122163,-0.00033643743,0.0063331784,-0.04151165,-0.018118234,0.34100008,0.100486755,-0.26460803,0.49758056,0.4138158,-0.015405222,-0.48738268,0.5108272,-0.3024912,0.6392856,-0.121834084,-0.06939155,0.3928698,0.27057967]}},"6":{"Convolution":{"w":[[[[0.13475935]],[[0.023874376]],[[0.11375579]],[[-0.0964085]],[[-0.096858315]],[[0.010120559]],[[0.2752919]],[[0.017477972]],[[-0.016059753]],[[-0.2743229]],[[-0.013028971]],[[0.002024196]],[[0.36578253]],[[-0.12425503]],[[-0.16442436]],[[-0.20046759]]],[[[0.041525155]],[[0.060807664]],[[0.10226828]],[[0.10082046]],[[-0.14524789]],[[-0.25481665]],[[-0.073911265]],[[-0.10564487]],[[-0.18287668]],[[-0.16989948]],[[-0.04831166]],[[0.06551732]],[[-0.1357694]],[[0.05894609]],[[0.0059684063]],[[-0.07875319]]],[[[-0.022498133]],[[-0.016805636]],[[-0.044640593]],[[0.024751816]],[[-0.0024041617]],[[0.025162864]],[[-0.09764451]],[[0.039275575]],[[-0.014651118]],[[0.017250724]],[[-0.010655934]],[[-0.03326078]],[[0.010679695]],[[-0.041068733]],[[-0.048934955]],[[0.028607717]]],[[[-0.008719815]],[[0.10657055]],[[0.033053488]],[[-0.266515]],[[-0.0016751456]],[[-0.061548527]],[[-0.10659504]],[[-0.18484648]],[[0.11775283]],[[0.063142195]],[[-0.080026455]],[[0.16558562]],[[0.044186685]],[[0.081510626]],[[-0.14608932]],[[0.09470681]]],[[[0.028125444]],[[-0.027059654]],[[0.054058522]],[[-0.1438788]],[[-0.058919787]],[[0.08198128]],[[0.026936203]],[[-0.091024056]],[[-0.031352796]],[[0.009411717]],[[0.07706283]],[[0.09320693]],[[0.010212]],[[0.04345339]],[[0.027045485]],[[-0.020479951]]],[[[-0.033293873]],[[0.00725835]],[[0.017118061]],[[-0.061785314]],[[0.0055605597]],[[0.08940747]],[[0.11113713]],[[-0.08858984]],[[-0.02423878]],[[-0.038762882]],[[-0.07047249]],[[0.003546726]],[[-0.09308987]],[[-0.11189542]],[[0.15232745]],[[-0.056706548]]],[[[0.027242128]],[[0.08786498]],[[0.07099168]],[[0.065359265]],[[-0.07189723]],[[-0.1864397]],[[-0.1045617]],[[-0.0064566154]],[[-0.117918685]],[[-0.08095182]],[[-0.048478562]],[[0.17965893]],[[-0.14124076]],[[0.12994942]],[[0.00489659]],[[-0.08189112]]],[[[0.012801114]],[[0.16442251]],[[0.048313584]],[[-0.02718583]],[[0.011123803]],[[0.10016214]],[[-0.052902654]],[[0.11204528]],[[-0.017354151]],[[0.14912161]],[[0.0034789937]],[[0.14945593]],[[-0.003785762]],[[0.054057237]],[[-0.07105962]],[[-0.08501787]]],[[[-0.25249854]],[[-0.057523828]],[[0.2829334]],[[-0.00040730863]],[[-0.040403992]],[[-0.020083385]],[[-0.10115024]],[[-0.02348653]],[[0.036483373]],[[0.32167846]],[[0.15752873]],[[-0.00093777245]],[[-0.39873302]],[[-0.055596597]],[[0.17492451]],[[0.15853138]]],[[[0.012476669]],[[0.12039024]],[[-0.010110997]],[[0.07559681]],[[-0.07413214]],[[-0.01150334]],[[0.020368733]],[[-0.033347234]],[[-0.061211497]],[[-0.010426395]],[[0.0064389263]],[[0.039207343]],[[-0.025263261]],[[0.047665052]],[[-0.008255113]],[[0.037162438]]],[[[0.08163308]],[[-0.13866287]],[[-0.026041556]],[[-0.4487364]],[[0.028712869]],[[-0.04466477]],[[-0.085936755]],[[0.15944281]],[[-0.28822628]],[[0.13850886]],[[0.2727807]],[[-0.044186015]],[[0.08656977]],[[0.22558546]],[[0.038293242]],[[-0.003835492]]],[[[-0.064881004]],[[-0.008199013]],[[-0.06465014]],[[0.19826601]],[[-0.026148764]],[[-0.10432116]],[[-0.19548441]],[[0.1643191]],[[0.028473409]],[[0.17141013]],[[0.07058915]],[[-0.06524977]],[[-0.078285195]],[[0.16366413]],[[-0.21261722]],[[0.07988813]]],[[[0.03685659]],[[0.027353594]],[[-0.029369473]],[[-0.0016417522]],[[0.029701687]],[[0.051087655]],[[0.00143477]],[[0.026254805]],[[0.04052228]],[[-0.0041045863]],[[-0.008516176]],[[0.02229277]],[[0.0067392685]],[[0.001684478]],[[0.032998]],[[0.055305474]]],[[[0.03790422]],[[-0.05539034]],[[-0.0010164963]],[[-0.03128662]],[[-0.08561935]],[[0.052929822]],[[0.017049398]],[[0.058491252]],[[0.014687651]],[[-0.06930774]],[[-0.0037893287]],[[-0.043210644]],[[-0.03379776]],[[0.08830151]],[[0.026104668]],[[0.04947343]]],[[[-0.08096403]],[[-0.034735255]],[[0.04026314]],[[0.099706456]],[[0.07478444]],[[0.056206185]],[[-0.00081456546]],[[-0.103885606]],[[-0.06351844]],[[-0.009069677]],[[0.014777195]],[[0.05748993]],[[0.06793479]],[[-0.0005631658]],[[-0.038583316]],[[0.041170765]]],[[[0.021621719]],[[0.07972063]],[[0.12504733]],[[0.11153437]],[[-0.25576836]],[[-0.07665427]],[[0.0049562124]],[[-0.15407035]],[[-0.10568789]],[[0.090461746]],[[0.08385133]],[[-0.23075601]],[[-0.039392292]],[[0.082201704]],[[-0.29929602]],[[-0.19469845]]],[[[0.19342636]],[[0.056330394]],[[0.15655527]],[[0.14576]],[[0.1496385]],[[0.101830795]],[[0.07763254]],[[-0.022397807]],[[0.104684755]],[[-0.016438063]],[[-0.060271535]],[[-0.12280374]],[[-0.13369457]],[[-0.027130593]],[[0.073115826]],[[0.078023426]]],[[[-0.0004041863]],[[-0.026767883]],[[0.10979675]],[[-0.122124456]],[[-0.061128896]],[[0.048711587]],[[0.017047165]],[[-0.01497417]],[[0.02248473]],[[-0.019098224]],[[-0.29485396]],[[-0.016297294]],[[0.016188025]],[[0.15731116]],[[-0.062365286]],[[0.15701029]]],[[[-0.1769489]],[[0.023685932]],[[-0.106151134]],[[0.08805112]],[[-0.16577214]],[[-0.036678467]],[[-0.3015017]],[[0.22265954]],[[-0.05467854]],[[0.101309456]],[[-0.06734368]],[[0.058265716]],[[0.1462999]],[[-0.08496648]],[[-0.06564802]],[[-0.04149542]]],[[[-0.044034194]],[[0.023442494]],[[-0.08974714]],[[0.10960493]],[[0.06341368]],[[-0.12513982]],[[-0.11079684]],[[0.15690944]],[[-0.010451955]],[[-0.0011961791]],[[-0.0074165855]],[[-0.02810348]],[[0.016665647]],[[0.048961367]],[[-0.13773263]],[[0.101417005]]],[[[0.009539696]],[[0.07279424]],[[0.07528293]],[[0.113403946]],[[-0.007199281]],[[0.010363729]],[[0.05832063]],[[0.04939469]],[[-0.0134797925]],[[0.07389923]],[[-0.3120289]],[[0.0052883415]],[[0.0050639673]],[[-0.048289638]],[[-0.03486985]],[[0.015001666]]],[[[0.057770688]],[[-0.014275187]],[[0.031353556]],[[-0.18268514]],[[0.07216826]],[[-0.0543441]],[[-0.18049133]],[[-0.08985211]],[[0.021382486]],[[-0.08270492]],[[0.027122816]],[[-0.06518924]],[[0.05681923]],[[0.016767908]],[[0.011709191]],[[0.07524315]]],[[[0.02346099]],[[0.011432169]],[[0.002690161]],[[0.035401203]],[[-0.026098054]],[[-0.039433938]],[[-0.005027982]],[[-0.021907195]],[[-0.007909413]],[[-0.04499325]],[[-0.0030397393]],[[0.025730204]],[[0.043102883]],[[0.0414595]],[[0.07727319]],[[-0.03473204]]],[[[0.067059904]],[[0.021596963]],[[0.024205677]],[[0.016869774]],[[0.028366346]],[[-0.0015421106]],[[-0.0007289286]],[[0.016298652]],[[-0.0384394]],[[-0.00082538195]],[[-0.016858209]],[[0.0626208]],[[0.0013745917]],[[0.094172165]],[[0.03000252]],[[-0.060737252]]],[[[-0.017206315]],[[0.0027919738]],[[0.057119995]],[[0.060801882]],[[0.008410744]],[[-0.16723745]],[[-0.0004465831]],[[-0.03851832]],[[0.051143106]],[[0.01180903]],[[0.06923384]],[[-0.045174703]],[[-0.09516018]],[[0.09154102]],[[-0.05028303]],[[0.05028181]]],[[[-0.0446798]],[[-0.39045367]],[[0.17500243]],[[-0.032755163]],[[0.1833629]],[[-0.10034114]],[[-0.050590936]],[[0.19371715]],[[0.21723472]],[[-0.028058741]],[[-0.121439956]],[[0.29158252]],[[-0.117390215]],[[0.04992626]],[[-0.08715429]],[[-0.242552]]],[[[0.011581784]],[[0.044208344]],[[0.094000414]],[[0.021578392]],[[-0.04959895]],[[0.00028598492]],[[0.08897375]],[[0.085701205]],[[0.05177942]],[[-0.09349335]],[[0.03628926]],[[0.05113793]],[[0.13841702]],[[-0.05508695]],[[-0.07261593]],[[-0.0051450506]]],[[[-0.33540213]],[[0.07485345]],[[-0.089145474]],[[0.22116417]],[[-0.1550004]],[[0.031995576]],[[0.29708883]],[[0.048611898]],[[0.1814232]],[[0.16439995]],[[-0.11534223]],[[0.054885715]],[[-0.14095022]],[[-0.07068548]],[[-0.008125126]],[[-0.09411836]]],[[[0.1264566]],[[0.047379084]],[[-0.045919172]],[[-0.05947477]],[[-0.0096216025]],[[-0.14778642]],[[0.011346372]],[[0.034372147]],[[0.01609192]],[[0.17532457]],[[0.00007957895]],[[0.034103196]],[[-0.016079064]],[[-0.15420389]],[[-0.018958284]],[[-0.066822246]]],[[[0.0035629335]],[[0.02519753]],[[0.059089668]],[[0.067547485]],[[0.007342908]],[[0.048463788]],[[0.012114194]],[[-0.0062713292]],[[0.024326395]],[[0.091383755]],[[0.004185473]],[[-0.03546332]],[[-0.049461532]],[[0.03559192]],[[0.046562653]],[[0.006099958]]],[[[-0.11214591]],[[-0.1061754]],[[-0.32326332]],[[-0.06133476]],[[0.034510337]],[[0.31818986]],[[0.067579836]],[[0.00058892166]],[[0.012975703]],[[0.18572253]],[[-0.023731029]],[[-0.016618254]],[[-0.3010934]],[[0.030065006]],[[-0.34614033]],[[-0.07217155]]],[[[0.048358243]],[[-0.018064491]],[[-0.016559249]],[[-0.056601677]],[[-0.061602138]],[[-0.0050046677]],[[0.013846811]],[[0.0659398]],[[0.015317085]],[[-0.003769897]],[[-0.01610989]],[[-0.040415604]],[[-0.036570232]],[[0.025985103]],[[0.027243083]],[[0.004906683]]],[[[-0.020750493]],[[0.07091108]],[[-0.06555076]],[[-0.0024797465]],[[-0.019708538]],[[0.106532216]],[[0.07636817]],[[-0.03403759]],[[0.017615154]],[[0.05809951]],[[0.039735217]],[[-0.11191968]],[[0.062445033]],[[-0.034660064]],[[-0.006655547]],[[0.065585926]]],[[[0.10548091]],[[0.0336373]],[[0.21260487]],[[0.03612116]],[[0.09601148]],[[-0.19881015]],[[-0.06788395]],[[-0.0015249889]],[[-0.053836893]],[[-0.1888246]],[[-0.034286417]],[[0.12384471]],[[0.048632894]],[[0.0024848732]],[[0.1693136]],[[0.03888189]]],[[[0.021714635]],[[0.18539613]],[[0.16300319]],[[-0.09630314]],[[0.009116176]],[[0.1264246]],[[0.15580915]],[[0.339346]],[[-0.12372645]],[[-0.29221648]],[[0.08807453]],[[0.2912277]],[[0.0145573225]],[[-0.23210801]],[[-0.27762413]],[[0.11546526]]],[[[-0.0024139343]],[[0.14860028]],[[-0.026464598]],[[0.04993865]],[[-0.096795574]],[[-0.036373433]],[[0.01748706]],[[-0.07407281]],[[-0.12142186]],[[-0.030951248]],[[0.03552288]],[[0.005098522]],[[-0.020601766]],[[0.06102405]],[[-0.0056333155]],[[0.07780099]]],[[[0.19798018]],[[0.1288623]],[[0.059569888]],[[-0.06362618]],[[0.259242]],[[-0.21777514]],[[0.054912563]],[[-0.17013304]],[[-0.098512165]],[[0.3948477]],[[-0.16045615]],[[0.1754538]],[[0.09709461]],[[-0.20776907]],[[-0.13220273]],[[-0.043447904]]],[[[0.26189488]],[[-0.06419528]],[[-0.10705008]],[[-0.09588726]],[[-0.27742743]],[[-0.058804076]],[[0.0064527947]],[[0.17975773]],[[0.16736242]],[[-0.05259141]],[[0.007326238]],[[-0.101369806]],[[-0.14978163]],[[-0.011048165]],[[0.05760391]],[[0.07042359]]],[[[-0.06873333]],[[0.023079732]],[[0.03357662]],[[0.013499928]],[[-0.0751165]],[[-0.06858389]],[[0.014068077]],[[-0.034122173]],[[0.02429548]],[[-0.0359855]],[[0.016599592]],[[-0.018684722]],[[0.07789038]],[[-0.08184714]],[[0.019271633]],[[0.041940007]]],[[[0.037921846]],[[-0.042840052]],[[-0.018924274]],[[-0.07188462]],[[0.117641605]],[[0.15526888]],[[-0.27454925]],[[0.16479029]],[[-0.0005076801]],[[0.122131065]],[[-0.05802128]],[[-0.08179984]],[[0.18894525]],[[-0.119204886]],[[0.006118346]],[[-0.018392071]]],[[[0.02769596]],[[-0.04933026]],[[0.048469085]],[[0.15821807]],[[-0.07600693]],[[-0.0708813]],[[-0.124941096]],[[-0.034979668]],[[0.18142796]],[[0.3746657]],[[0.07360869]],[[-0.12910092]],[[0.24159051]],[[0.37182647]],[[0.06792327]],[[-0.15785272]]],[[[-0.25167623]],[[0.2611541]],[[0.059003107]],[[-0.18424931]],[[0.115166955]],[[-0.031815883]],[[-0.03350299]],[[0.10383657]],[[0.0787703]],[[-0.06748936]],[[-0.109922476]],[[-0.10527098]],[[-0.014390359]],[[0.145953]],[[0.036360264]],[[-0.21106611]]],[[[0.0303355]],[[-0.024851931]],[[0.025073428]],[[-0.020451704]],[[-0.0012421532]],[[0.111745656]],[[-0.003458945]],[[-0.01927044]],[[-0.03390389]],[[0.022714026]],[[-0.07341569]],[[-0.025580691]],[[0.019670805]],[[-0.084398866]],[[0.09764841]],[[-0.043062035]]],[[[-0.036587738]],[[0.08886262]],[[-0.038420126]],[[0.009027965]],[[-0.027105104]],[[0.082562804]],[[0.07200231]],[[0.0026108387]],[[0.012474831]],[[0.053384144]],[[0.010672725]],[[-0.023568673]],[[0.01703599]],[[0.017694635]],[[-0.020015063]],[[0.008991854]]],[[[-0.041271612]],[[0.12583186]],[[-0.06710938]],[[0.02210841]],[[-0.11770613]],[[0.01872958]],[[0.039829265]],[[-0.048508417]],[[-0.081872016]],[[0.017014587]],[[0.027885206]],[[-0.010250187]],[[0.0044598756]],[[0.027634025]],[[-0.0018194821]],[[0.05451674]]],[[[0.015408887]],[[-0.00071900425]],[[-0.25084576]],[[-0.16033733]],[[0.1850516]],[[0.21097636]],[[0.14983022]],[[0.120742284]],[[0.07882202]],[[-0.13891222]],[[-0.0666392]],[[0.17644675]],[[0.18031305]],[[-0.11800695]],[[0.13904215]],[[0.12658238]]],[[[0.07191547]],[[-0.077314846]],[[-0.021694632]],[[0.010191364]],[[0.103819795]],[[-0.19496822]],[[0.24987543]],[[-0.013178758]],[[0.07718249]],[[-0.044203416]],[[0.075986035]],[[-0.08479515]],[[-0.07204755]],[[0.16484825]],[[-0.0022682426]],[[0.09938548]]],[[[-0.07629692]],[[-0.026201835]],[[0.038379714]],[[0.09508643]],[[0.08683632]],[[0.040649008]],[[-0.002436874]],[[-0.11443989]],[[-0.071770154]],[[0.0054432843]],[[0.01956259]],[[0.06542655]],[[0.0712639]],[[-0.014639217]],[[-0.03792956]],[[0.028413549]]],[[[0.044032145]],[[-0.0020176752]],[[-0.040663186]],[[0.08823549]],[[0.029903792]],[[-0.0691876]],[[0.0015614359]],[[-0.13837697]],[[0.022612728]],[[0.08889816]],[[0.07094515]],[[0.12203157]],[[0.028453378]],[[-0.16296788]],[[-0.052594755]],[[0.01085775]]],[[[0.015392917]],[[-0.011361261]],[[-0.06881563]],[[0.009216773]],[[-0.00010811593]],[[-0.012865099]],[[0.013535729]],[[-0.028427456]],[[0.0052731764]],[[-0.041321717]],[[-0.047573674]],[[-0.012408505]],[[0.06495433]],[[0.030054903]],[[-0.0019408494]],[[-0.04865287]]],[[[-0.34532848]],[[-0.11351725]],[[-0.21726486]],[[-0.39928636]],[[-0.10929392]],[[-0.27564695]],[[-0.10631618]],[[-0.16314776]],[[-0.041665826]],[[-0.095324144]],[[0.23944029]],[[0.038408]],[[0.09654591]],[[-0.0057444163]],[[0.016094854]],[[-0.06659043]]],[[[-0.25130025]],[[0.043255586]],[[0.20416234]],[[-0.002509269]],[[-0.25863147]],[[-0.23744771]],[[0.22221486]],[[0.062379275]],[[-0.0684799]],[[-0.06895952]],[[0.13848583]],[[-0.029426647]],[[0.20183809]],[[-0.3069848]],[[0.15602316]],[[0.16300748]]],[[[0.06665608]],[[-0.06469075]],[[-0.05237315]],[[-0.010317201]],[[0.14967546]],[[-0.26957336]],[[0.4827866]],[[-0.07927314]],[[0.06969088]],[[-0.09006322]],[[0.13049798]],[[-0.07645956]],[[-0.13595115]],[[0.23287952]],[[-0.05367759]],[[0.11219227]]],[[[-0.14823782]],[[-0.009478776]],[[0.085000105]],[[0.099718615]],[[0.16918012]],[[0.078049384]],[[-0.038258836]],[[-0.1710974]],[[-0.110591136]],[[0.005349092]],[[-0.009645306]],[[0.066358715]],[[0.11463435]],[[-0.049487233]],[[-0.016383762]],[[-0.005757824]]],[[[-0.06096209]],[[0.02564291]],[[-0.047659427]],[[0.015611583]],[[-0.16450106]],[[-0.090971954]],[[-0.03733482]],[[-0.4880337]],[[0.39107057]],[[-0.12338911]],[[0.06661138]],[[0.21090804]],[[-0.0018816919]],[[-0.25403795]],[[-0.116148956]],[[0.08878163]]],[[[-0.017549869]],[[-0.087944135]],[[0.03768797]],[[0.007911647]],[[0.009778626]],[[-0.03468822]],[[-0.037488338]],[[0.037903298]],[[0.017182292]],[[-0.025378123]],[[-0.03763382]],[[0.09025584]],[[-0.043009292]],[[0.021229576]],[[-0.021056786]],[[-0.08336923]]],[[[-0.074667655]],[[-0.09648781]],[[0.032263614]],[[-0.12868533]],[[0.10025691]],[[0.18184428]],[[0.10008065]],[[-0.018733835]],[[0.046686713]],[[0.028735265]],[[0.024690242]],[[-0.13266246]],[[-0.26464808]],[[-0.19678621]],[[-0.3829542]],[[-0.03143938]]],[[[-0.051932257]],[[-0.09261186]],[[0.077852294]],[[-0.05641703]],[[0.0013266354]],[[0.013404784]],[[0.15366028]],[[0.14317846]],[[-0.1655977]],[[0.1264973]],[[-0.36661848]],[[-0.08684981]],[[0.03765519]],[[0.13652463]],[[0.0034909544]],[[0.077798046]]],[[[-0.019684514]],[[0.06625999]],[[-0.009528208]],[[0.04037376]],[[-0.08127435]],[[-0.10624106]],[[-0.017813321]],[[-0.026765183]],[[-0.082945235]],[[-0.04277837]],[[0.0063114674]],[[0.06408678]],[[-0.048159264]],[[0.053601686]],[[-0.010716402]],[[-0.007512971]]],[[[0.060536314]],[[0.0039305086]],[[0.13608183]],[[-0.102671966]],[[-0.083829366]],[[-0.008008774]],[[0.18865348]],[[-0.12209766]],[[0.0133658]],[[-0.053578533]],[[0.089479245]],[[0.051491823]],[[0.14430249]],[[-0.004501453]],[[0.13393888]],[[-0.10972864]]],[[[-0.1830453]],[[0.042208254]],[[-0.2651974]],[[0.1942178]],[[0.025201282]],[[-0.34516013]],[[-0.15903504]],[[0.32342818]],[[-0.0010061618]],[[-0.030456813]],[[-0.027442815]],[[0.00058754307]],[[0.074501485]],[[0.037917223]],[[-0.23066519]],[[0.15137734]]],[[[0.083030656]],[[0.072730154]],[[0.06713794]],[[-0.15338014]],[[0.00844494]],[[0.19300644]],[[0.21179332]],[[-0.20704356]],[[-0.046182282]],[[-0.12791246]],[[-0.03129822]],[[0.24278921]],[[-0.07625755]],[[-0.003476887]],[[0.2615858]],[[-0.07016825]]],[[[-0.018340088]],[[-0.014963936]],[[-0.03937266]],[[-0.11605228]],[[-0.015262708]],[[-0.055003583]],[[-0.059753478]],[[-0.014057688]],[[-0.022260962]],[[-0.05131467]],[[0.03385318]],[[0.012267526]],[[0.05098805]],[[-0.0009935212]],[[-0.0526484]],[[-0.014832495]]],[[[-0.056467477]],[[-0.0030260328]],[[0.014804934]],[[0.06911681]],[[0.07120738]],[[-0.0762361]],[[0.087556]],[[-0.05549756]],[[-0.027444277]],[[0.010335231]],[[0.042693347]],[[0.03289496]],[[0.050849684]],[[0.050055593]],[[-0.07104135]],[[0.02156508]]],[[[-0.086677484]],[[0.08705246]],[[0.22786891]],[[0.068271436]],[[-0.20270741]],[[-0.26676512]],[[0.122703835]],[[0.08006203]],[[-0.041446052]],[[-0.06556754]],[[0.117148764]],[[0.1198068]],[[0.34728315]],[[-0.03938255]],[[0.33387774]],[[0.08916174]]],[[[-0.011255388]],[[-0.109080024]],[[0.023909293]],[[0.01998861]],[[0.0043004267]],[[-0.023678394]],[[-0.041632313]],[[0.028197777]],[[0.032064334]],[[-0.04440462]],[[-0.031381663]],[[0.0882399]],[[-0.046046253]],[[0.012369061]],[[-0.02470446]],[[-0.069221094]]],[[[0.053188838]],[[0.019253196]],[[-0.006744203]],[[-0.096607424]],[[-0.06251755]],[[-0.012233654]],[[-0.0033876523]],[[0.11543887]],[[0.042235225]],[[-0.009505403]],[[-0.022861939]],[[-0.06312892]],[[-0.047565926]],[[0.06367146]],[[0.02435281]],[[-0.013735201]]],[[[-0.2848991]],[[0.013150864]],[[-0.024206068]],[[0.22059649]],[[0.19801305]],[[-0.11086825]],[[0.15935665]],[[-0.13100067]],[[-0.034439612]],[[0.033757098]],[[0.05992852]],[[0.082889594]],[[0.09169748]],[[0.0995775]],[[-0.144192]],[[0.04166368]]],[[[0.12377588]],[[-0.078520946]],[[0.11291145]],[[-0.020379823]],[[0.09853019]],[[-0.09703782]],[[-0.16300738]],[[0.026848996]],[[-0.023263799]],[[-0.08733114]],[[-0.04641436]],[[0.080420226]],[[-0.05376474]],[[0.10487109]],[[-0.0271885]],[[-0.108336955]]],[[[-0.07135064]],[[-0.08034854]],[[-0.034571595]],[[-0.020675858]],[[0.022575414]],[[0.11627806]],[[0.086522534]],[[0.0673926]],[[0.12236236]],[[0.07187655]],[[0.012816732]],[[-0.004966903]],[[0.03414348]],[[-0.020406088]],[[-0.04117635]],[[-0.009876388]]],[[[0.017545054]],[[-0.017303806]],[[0.0049271593]],[[0.012688776]],[[0.059978604]],[[0.108434364]],[[-0.10144196]],[[0.09118603]],[[0.014966964]],[[-0.20264839]],[[0.15964215]],[[-0.1686044]],[[0.00066144037]],[[0.09259839]],[[0.101466015]],[[-0.0592968]]],[[[-0.07893356]],[[0.04318135]],[[0.061773825]],[[-0.02050537]],[[-0.14497632]],[[0.3077835]],[[-0.44889203]],[[0.12373479]],[[-0.06217102]],[[0.1240306]],[[-0.12722737]],[[0.06940212]],[[0.16718158]],[[-0.30149397]],[[0.09459921]],[[-0.1031743]]],[[[0.0040173363]],[[-0.004678342]],[[-0.0002042483]],[[-0.003976131]],[[-0.006389571]],[[0.0008907044]],[[-0.023935536]],[[-0.010741655]],[[0.017460888]],[[0.017054588]],[[0.017836059]],[[-0.0027218366]],[[0.013329243]],[[0.019667188]],[[-0.0048453566]],[[0.002446978]]],[[[0.28422493]],[[-0.117797375]],[[-0.05529494]],[[-0.07306842]],[[-0.17110921]],[[-0.032672055]],[[0.037624534]],[[0.07918396]],[[0.018653963]],[[0.092429735]],[[-0.008082796]],[[-0.05331625]],[[-0.08953892]],[[-0.11325894]],[[0.089099295]],[[0.016428633]]],[[[-0.04348156]],[[0.0213806]],[[-0.033409987]],[[-0.0053368453]],[[0.0584112]],[[-0.016691424]],[[-0.06794165]],[[0.06254221]],[[-0.022762846]],[[-0.0023635144]],[[-0.04279764]],[[-0.089782335]],[[-0.02708637]],[[-0.071676575]],[[-0.026827361]],[[0.0018936975]]],[[[-0.093534626]],[[-0.0625109]],[[-0.045377098]],[[-0.00042963043]],[[0.028198373]],[[-0.036502916]],[[-0.03308031]],[[0.058716528]],[[0.023745857]],[[0.008850203]],[[-0.07673367]],[[-0.1824374]],[[0.016737545]],[[-0.1819485]],[[-0.07621633]],[[0.03814186]]],[[[0.09252496]],[[0.0011844129]],[[0.0075610466]],[[0.07240938]],[[-0.09163329]],[[-0.047905058]],[[-0.0004829604]],[[-0.0045259837]],[[0.04152082]],[[-0.073360264]],[[0.02603687]],[[-0.045244202]],[[0.24211554]],[[0.12076208]],[[-0.22888656]],[[-0.08168573]]],[[[-0.024136985]],[[-0.17833437]],[[0.09454355]],[[-0.32588327]],[[-0.13075282]],[[0.085724436]],[[-0.0682613]],[[-0.12515688]],[[-0.11468168]],[[0.000010491049]],[[-0.22140224]],[[0.11463504]],[[0.16017412]],[[0.31660023]],[[-0.17209898]],[[0.34810758]]],[[[-0.028229853]],[[-0.0026328808]],[[-0.0029571322]],[[-0.011190498]],[[-0.015824823]],[[-0.054538455]],[[-0.052476574]],[[-0.012875189]],[[0.054124463]],[[-0.007302661]],[[0.059710708]],[[-0.014602281]],[[0.13110358]],[[0.037869338]],[[-0.067971185]],[[-0.017161576]]],[[[-0.012456121]],[[-0.043767434]],[[-0.023646902]],[[0.033811726]],[[0.010342898]],[[-0.10042507]],[[0.27089372]],[[-0.041059565]],[[0.024307894]],[[-0.04627058]],[[0.077890664]],[[0.03481114]],[[-0.08474247]],[[0.14769238]],[[-0.041893844]],[[0.06654583]]],[[[-0.15658331]],[[0.02169574]],[[-0.24416299]],[[-0.1055244]],[[0.17287488]],[[-0.00074776734]],[[-0.11275611]],[[0.0026363505]],[[-0.16758275]],[[-0.08595982]],[[-0.13342088]],[[0.11994623]],[[-0.48701334]],[[-0.22084849]],[[0.13582647]],[[0.23726541]]],[[[0.15056357]],[[-0.12538072]],[[-0.062804505]],[[0.2337107]],[[0.22858295]],[[-0.08260403]],[[0.05864637]],[[-0.14296553]],[[-0.22026]],[[0.22163376]],[[0.25564]],[[0.10281763]],[[0.11397334]],[[-0.30317256]],[[-0.031064864]],[[-0.069121115]]],[[[0.040951647]],[[-0.22029199]],[[0.020267894]],[[-0.108664006]],[[0.16543023]],[[0.022612093]],[[0.0035958837]],[[0.052967258]],[[0.14518373]],[[-0.029323887]],[[-0.041353103]],[[-0.05071804]],[[0.060834315]],[[-0.07771451]],[[-0.017481951]],[[0.011120518]]],[[[0.0826389]],[[-0.120874025]],[[0.0492079]],[[0.03782253]],[[-0.1886685]],[[-0.10236229]],[[0.023182055]],[[-0.19502239]],[[-0.055738453]],[[-0.10078673]],[[-0.073363736]],[[-0.24624547]],[[0.09839137]],[[-0.013500142]],[[-0.27293766]],[[-0.3230043]]],[[[0.0430672]],[[-0.06540283]],[[0.26993728]],[[-0.2913942]],[[-0.15265498]],[[0.36357865]],[[0.3647161]],[[-0.33985266]],[[-0.103176504]],[[0.10135644]],[[0.07771405]],[[0.14990853]],[[-0.14188737]],[[-0.058558114]],[[0.36624524]],[[-0.24995416]]],[[[0.04794542]],[[-0.032845095]],[[0.0010319969]],[[0.017102234]],[[0.20206995]],[[-0.36910558]],[[0.50120765]],[[-0.104725435]],[[0.10577477]],[[-0.11125578]],[[0.15114632]],[[-0.059100717]],[[-0.14701234]],[[0.27603275]],[[-0.00687827]],[[0.14585617]]],[[[0.05258254]],[[-0.040751766]],[[-0.020807764]],[[0.09016143]],[[0.05837371]],[[-0.040130522]],[[0.05343206]],[[-0.0877648]],[[-0.06042347]],[[0.09179292]],[[0.042328086]],[[0.07997413]],[[0.0196708]],[[-0.10966595]],[[-0.030559482]],[[0.0082525015]]],[[[0.11998144]],[[-0.13808112]],[[-0.4527894]],[[0.14665139]],[[-0.06584977]],[[-0.043564007]],[[-0.06359578]],[[-0.29728103]],[[0.025301712]],[[-0.03474015]],[[-0.26281518]],[[-0.08428445]],[[0.27425912]],[[0.33638778]],[[0.10471296]],[[-0.31302077]]],[[[-0.12352107]],[[-0.08085743]],[[-0.10460108]],[[0.10215817]],[[0.29162353]],[[0.03894895]],[[0.01080671]],[[0.15165222]],[[-0.3169125]],[[-0.044136412]],[[0.5817274]],[[-0.18403661]],[[0.08381592]],[[-0.080597654]],[[0.17158478]],[[-0.33022615]]],[[[-0.009431778]],[[0.020571819]],[[0.011997833]],[[0.06941687]],[[0.0041890717]],[[-0.100633495]],[[0.010474166]],[[0.014202156]],[[0.015230692]],[[-0.0023069635]],[[0.061952297]],[[-0.017700369]],[[-0.04128733]],[[0.0810924]],[[-0.10917263]],[[0.03410387]]],[[[-0.005574015]],[[-0.06238689]],[[-0.05983196]],[[-0.10911074]],[[0.0033314077]],[[-0.02725398]],[[-0.05217775]],[[-0.003845486]],[[-0.044158664]],[[-0.06873802]],[[0.023943527]],[[0.020411298]],[[0.07626391]],[[-0.026931966]],[[-0.010212576]],[[0.015281472]]],[[[-0.30019325]],[[-0.039081845]],[[-0.19922511]],[[-0.028441979]],[[0.06034621]],[[0.049741827]],[[0.10542644]],[[0.19033875]],[[0.16307777]],[[0.23447561]],[[0.0656339]],[[0.29637602]],[[0.023630068]],[[0.013778366]],[[0.45908663]],[[0.27085218]]],[[[0.04251216]],[[0.21226583]],[[-0.13308793]],[[-0.14856717]],[[0.12735197]],[[0.13483259]],[[0.19909045]],[[-0.1370405]],[[0.039057754]],[[0.107188225]],[[0.16014385]],[[-0.43086636]],[[0.22660948]],[[-0.11738758]],[[0.060941372]],[[0.3004839]]],[[[0.18265532]],[[0.07808087]],[[0.14817461]],[[0.60265607]],[[0.08338073]],[[0.13005395]],[[0.28152806]],[[0.20786507]],[[0.111945935]],[[0.06799186]],[[-0.16541417]],[[-0.13344678]],[[-0.16728167]],[[-0.16474508]],[[0.12524319]],[[-0.12817812]]],[[[0.14963014]],[[0.07416761]],[[-0.058310937]],[[-0.13647372]],[[0.002716223]],[[-0.13675416]],[[0.026624791]],[[0.08905982]],[[0.020015325]],[[0.18109179]],[[-0.034197822]],[[0.021634988]],[[-0.034768716]],[[-0.08749548]],[[-0.016608562]],[[-0.0738972]]],[[[-0.0599198]],[[-0.0058148056]],[[-0.06442887]],[[0.016528666]],[[0.014034457]],[[-0.013153454]],[[-0.07075344]],[[0.01315331]],[[-0.018325437]],[[0.07416262]],[[-0.030468615]],[[-0.03265372]],[[-0.0939264]],[[-0.006572421]],[[-0.016822113]],[[0.009780826]]]],"info":{"o_pg":96,"i_pg":16,"s":[1,1],"k":[1,1],"i":[16,112,112],"o":[96,112,112]},"bias":[0.015736647,-0.01223184,0.24169607,0.36565137,0.27891928,0.16961476,0.085800864,0.068652615,-0.04771991,0.14868777,-0.059780795,0.051203776,0.20293616,0.22977093,0.20616916,0.012868447,-0.04710552,0.304412,0.0823321,0.34853503,0.41093507,0.14778216,0.2713582,0.29415396,0.08013858,-0.0013987995,0.09699659,-0.33424506,0.27629617,0.2410734,-0.008978323,0.23318249,0.1636054,0.02191017,-0.0075203707,0.17179845,0.11713075,0.0945508,0.27588415,0.07857157,0.027519628,0.21859388,0.270453,0.23398404,0.16899627,0.0035869041,0.22214216,0.1767051,0.22881737,0.19106016,-0.45694545,-0.06757085,0.06970452,0.0007185066,-0.071882576,0.25025168,-0.0057699317,0.7278644,0.2529735,-0.0018482985,0.00023143004,-0.012451967,0.24254969,0.2597469,-0.027695233,0.23329088,0.3401194,-0.0041559013,-0.0059648473,0.09664865,0.15315308,0.17620596,0.35270196,0.034142263,0.2047519,0.17197797,0.057062335,0.05522534,0.37398133,0.11675759,-0.041456304,0.11346948,0.038941696,0.022272406,0.07709898,-0.055117045,0.21786101,0.027153514,0.07173279,0.1578728,0.24350609,-0.07405556,0.012476222,-0.06723906,0.29532596,0.13465483]}},"10":{"Convolution":{"w":[[[[0.23417643]],[[0.24395452]],[[-0.02530705]],[[-0.029637164]],[[0.47578067]],[[-0.035138167]],[[0.2737987]],[[-0.32730648]],[[-0.2669426]],[[0.06347069]],[[0.11590336]],[[0.330374]],[[-0.0646495]],[[-0.06300106]],[[-0.02702481]],[[0.42071527]],[[-0.23035806]],[[-0.12336546]],[[-0.070297115]],[[0.44537753]],[[0.06328133]],[[0.089320235]],[[-0.009794316]],[[0.037553407]],[[0.077488795]],[[0.091031544]],[[0.2961334]],[[-0.13242514]],[[-0.17044076]],[[-0.0125436]],[[-0.18562482]],[[-0.033982888]],[[-0.04818563]],[[0.4177846]],[[0.22622009]],[[0.0010541247]],[[0.003449022]],[[0.14209796]],[[0.13847576]],[[0.108310975]],[[0.38040948]],[[0.00963105]],[[0.09968698]],[[0.101601765]],[[-0.090277806]],[[-0.19546558]],[[0.22761825]],[[-0.046578024]],[[-0.06158433]],[[0.1073572]],[[-0.024529954]],[[0.14653446]],[[0.22149616]],[[0.16248819]],[[0.06251321]],[[0.2315001]],[[-0.08939765]],[[-0.108818635]],[[0.28126618]],[[-0.25052598]],[[0.15283276]],[[0.011959884]],[[-0.20965424]],[[0.17392088]],[[0.20836149]],[[0.24034801]],[[-0.24949777]],[[-0.14356115]],[[-0.084195256]],[[0.0064929626]],[[-0.11541386]],[[-0.05767902]],[[0.2342424]],[[0.052206445]],[[-0.23730762]],[[0.166495]],[[0.55537444]],[[-0.028028922]],[[0.23088716]],[[-0.114281856]],[[0.05620886]],[[-0.035469253]],[[0.08724125]],[[-0.30971956]],[[-0.10378439]],[[0.02553405]],[[-0.15026194]],[[-0.27411538]],[[0.054261565]],[[-0.08461092]],[[-0.1227272]],[[0.26842648]],[[-0.15887336]],[[-0.09705107]],[[0.018910192]],[[-0.12509738]]],[[[0.02560868]],[[0.26062053]],[[0.22847569]],[[-0.51907516]],[[0.031177072]],[[0.18926744]],[[0.099012926]],[[-0.19484608]],[[0.14126953]],[[-0.0698181]],[[0.050241254]],[[-0.065252475]],[[-0.15698338]],[[-0.15671816]],[[-0.11397321]],[[0.18345135]],[[-0.09649192]],[[0.14944662]],[[-0.17005353]],[[0.056535486]],[[-0.009791685]],[[0.07288166]],[[0.046457782]],[[0.010406698]],[[-0.14416526]],[[0.15066971]],[[0.08534468]],[[-0.010399754]],[[0.20042713]],[[-0.118959345]],[[0.10338157]],[[-0.1754766]],[[-0.17211983]],[[0.010941639]],[[-0.2844833]],[[0.052698724]],[[0.35310122]],[[-0.39097804]],[[0.030668598]],[[-0.23344599]],[[-0.11326772]],[[0.09722374]],[[0.020686965]],[[-0.12584785]],[[0.0048876815]],[[-0.3214685]],[[-0.012923175]],[[-0.26481938]],[[-0.13838685]],[[0.048944604]],[[-0.028006285]],[[0.08055644]],[[0.1559677]],[[-0.083044775]],[[-0.19714285]],[[0.20703594]],[[-0.20741057]],[[0.14219819]],[[-0.17004465]],[[0.29411146]],[[0.53891116]],[[0.024780191]],[[-0.3094682]],[[-0.06523992]],[[-0.024999596]],[[0.19240703]],[[0.102006055]],[[0.32803294]],[[-0.064267606]],[[0.079197004]],[[0.14328402]],[[0.33193585]],[[0.098219045]],[[-0.2799752]],[[0.05528957]],[[-0.12294524]],[[-0.13699605]],[[0.31872472]],[[0.13196918]],[[0.099050395]],[[-0.0881243]],[[-0.1855707]],[[0.2887288]],[[-0.16416456]],[[0.18865527]],[[-0.12292675]],[[-0.17331976]],[[0.13570501]],[[0.06256864]],[[-0.09816241]],[[-0.2549732]],[[0.4581918]],[[-0.21102917]],[[-0.027917372]],[[0.10089043]],[[0.2636462]]],[[[0.2007138]],[[0.017331714]],[[-0.22631083]],[[-0.15672226]],[[0.33158243]],[[-0.4898244]],[[-0.2201034]],[[0.07258727]],[[0.010286314]],[[0.17048132]],[[-0.018107027]],[[-0.34151784]],[[0.34104148]],[[-0.2259913]],[[-0.07657857]],[[-0.08089342]],[[0.062613145]],[[0.013076596]],[[0.11925537]],[[-0.0013801096]],[[0.193285]],[[0.08416543]],[[0.3855173]],[[0.35213113]],[[-0.12057475]],[[-0.22234829]],[[-0.3176336]],[[0.06920455]],[[0.18004577]],[[0.2923932]],[[0.13809933]],[[0.053846844]],[[-0.20305751]],[[0.2154287]],[[0.12109717]],[[-0.15952747]],[[-0.16854174]],[[0.20253792]],[[0.3599579]],[[-0.22366695]],[[0.17041275]],[[-0.20730497]],[[0.28457692]],[[-0.19886857]],[[-0.19174692]],[[0.2460066]],[[-0.08921713]],[[0.10013701]],[[-0.19109824]],[[0.19296741]],[[-0.0022343674]],[[-0.12013585]],[[-0.058493104]],[[0.022099253]],[[-0.0953103]],[[0.17085853]],[[-0.034136966]],[[-0.015461117]],[[-0.26781136]],[[0.12753887]],[[0.5105434]],[[0.009263022]],[[0.36759216]],[[-0.16194507]],[[0.00349188]],[[0.11840856]],[[-0.13961418]],[[-0.011189468]],[[-0.010474373]],[[-0.27308857]],[[-0.066374235]],[[0.21822996]],[[-0.338334]],[[0.13670497]],[[-0.2153002]],[[0.10857912]],[[-0.059640944]],[[0.10345212]],[[-0.34498155]],[[-0.013497517]],[[-0.058801234]],[[0.21481122]],[[0.110514544]],[[0.31403136]],[[0.2366667]],[[0.041346304]],[[-0.19480172]],[[-0.05742895]],[[-0.06841345]],[[-0.09759425]],[[0.42178828]],[[-0.34247696]],[[0.29090014]],[[0.08906667]],[[0.12134802]],[[-0.3820923]]],[[[-0.04993832]],[[0.2655376]],[[0.12778626]],[[0.3752094]],[[-0.29874292]],[[0.06847832]],[[-0.13419484]],[[-0.09278411]],[[-0.21188314]],[[0.10066779]],[[0.24536256]],[[-0.26981357]],[[-0.13466564]],[[0.024898423]],[[0.16586253]],[[0.11688308]],[[0.011146716]],[[0.0725193]],[[0.14749111]],[[-0.3572717]],[[-0.10037202]],[[0.2210264]],[[0.16781135]],[[0.17042138]],[[0.1438848]],[[-0.13397877]],[[0.090388216]],[[0.1295494]],[[-0.15093097]],[[-0.113022745]],[[0.23579046]],[[0.1752849]],[[-0.24899063]],[[-0.18900283]],[[0.2852665]],[[-0.09687307]],[[0.07517404]],[[0.18296722]],[[0.121012606]],[[-0.08400996]],[[-0.1429471]],[[0.3733975]],[[0.3484297]],[[-0.0231697]],[[-0.20070021]],[[0.031123213]],[[-0.28518212]],[[0.18612579]],[[0.12189887]],[[-0.015752148]],[[0.24184163]],[[0.028081207]],[[-0.35660836]],[[0.37841314]],[[0.14893135]],[[0.16069216]],[[-0.1337126]],[[0.043326862]],[[-0.0978357]],[[0.042826533]],[[0.03144905]],[[0.045031354]],[[-0.16872755]],[[-0.03322212]],[[-0.29078308]],[[0.12740064]],[[0.13877632]],[[-0.52697796]],[[-0.11917076]],[[-0.13818634]],[[0.027904311]],[[-0.12025573]],[[0.18241747]],[[-0.15353705]],[[0.34226528]],[[-0.001077447]],[[-0.054421343]],[[-0.2972423]],[[0.16636074]],[[-0.02095642]],[[-0.04360991]],[[-0.3209155]],[[0.24765643]],[[0.26450658]],[[-0.25206771]],[[-0.19644143]],[[0.039973695]],[[-0.3454842]],[[-0.1529065]],[[0.2905338]],[[-0.096729614]],[[-0.027652504]],[[0.117080204]],[[0.07744759]],[[0.3426744]],[[0.26738515]]],[[[-0.0013979197]],[[-0.12066895]],[[0.0033789154]],[[0.098208696]],[[0.017198436]],[[0.028490752]],[[-0.26622602]],[[-0.05396381]],[[-0.07709909]],[[0.02100724]],[[0.08394179]],[[0.20950592]],[[0.11153952]],[[-0.1273014]],[[-0.1065833]],[[-0.3634047]],[[-0.054088056]],[[-0.11868246]],[[0.08551594]],[[-0.26406544]],[[-0.2124135]],[[0.18165834]],[[0.04061783]],[[0.09961912]],[[0.38044488]],[[-0.13909806]],[[0.16948986]],[[-0.053987335]],[[-0.070279546]],[[-0.11349946]],[[-0.3335608]],[[-0.019225257]],[[0.138185]],[[-0.077681646]],[[0.13702673]],[[0.17741933]],[[0.10062229]],[[0.07369054]],[[-0.01912373]],[[-0.044162136]],[[-0.07994654]],[[-0.10640827]],[[-0.05959703]],[[0.09984302]],[[0.097452976]],[[0.3376462]],[[-0.4611467]],[[-0.14070751]],[[-0.15724725]],[[-0.33346915]],[[0.22537114]],[[-0.050625306]],[[-0.040143747]],[[-0.07018022]],[[-0.12882532]],[[-0.4820914]],[[0.25668287]],[[0.24789953]],[[-0.09461803]],[[-0.13097696]],[[-0.19965367]],[[-0.2805914]],[[0.34317422]],[[-0.12604295]],[[0.09612664]],[[-0.4657006]],[[-0.26084173]],[[0.048181426]],[[0.35217634]],[[-0.082291916]],[[0.012714778]],[[0.09390021]],[[0.19758779]],[[-0.0139046]],[[0.008612865]],[[-0.17635602]],[[0.27953967]],[[0.17095456]],[[0.13007002]],[[0.104100406]],[[-0.097299196]],[[0.07255132]],[[-0.039192796]],[[0.33790758]],[[0.16719685]],[[-0.44612136]],[[-0.18072142]],[[-0.27667543]],[[-0.039953403]],[[0.26993087]],[[0.20679216]],[[-0.14165495]],[[0.38088492]],[[-0.06938103]],[[0.09615]],[[-0.12465127]]],[[[-0.004428471]],[[-0.11260541]],[[0.22569863]],[[0.0055388645]],[[0.12181533]],[[0.21918356]],[[0.22741397]],[[-0.2532167]],[[-0.4390995]],[[0.13999142]],[[0.005759965]],[[-0.29541877]],[[0.32344124]],[[0.059494253]],[[-0.15212251]],[[-0.10779235]],[[-0.19508573]],[[0.091303535]],[[-0.08456139]],[[0.28098664]],[[0.0009778487]],[[-0.10613367]],[[0.37792024]],[[0.4713362]],[[0.3159679]],[[-0.23686168]],[[-0.30418098]],[[0.11472411]],[[-0.01432469]],[[0.14873403]],[[-0.2251736]],[[0.023013767]],[[-0.33101085]],[[-0.17694841]],[[0.5260877]],[[-0.43070126]],[[0.20360719]],[[-0.102671616]],[[0.4183204]],[[0.2288612]],[[0.087768584]],[[0.07523381]],[[-0.008904161]],[[-0.23048112]],[[-0.24252366]],[[0.1745353]],[[0.16060671]],[[0.09253971]],[[0.089163765]],[[0.10503343]],[[0.027178736]],[[-0.2639842]],[[0.07639583]],[[0.060595937]],[[-0.0038660814]],[[0.30929264]],[[0.2574285]],[[-0.08979048]],[[-0.34342232]],[[-0.2593503]],[[-0.20709011]],[[0.22988132]],[[0.30263826]],[[-0.17127934]],[[-0.080936976]],[[0.2328066]],[[-0.10003874]],[[0.29364756]],[[-0.059419185]],[[-0.3436608]],[[0.1425423]],[[-0.17249359]],[[-0.17689854]],[[0.03263998]],[[0.15334181]],[[-0.291904]],[[-0.2583272]],[[0.06468769]],[[-0.08607533]],[[0.22417933]],[[-0.14358851]],[[0.04787699]],[[-0.116453856]],[[0.26324543]],[[-0.26188788]],[[0.20057976]],[[0.1012891]],[[-0.39203566]],[[0.050516646]],[[0.32531318]],[[0.40319753]],[[-0.16395238]],[[0.2290355]],[[-0.07722099]],[[-0.0122225825]],[[0.13197936]]],[[[-0.029909147]],[[-0.16715644]],[[0.08121834]],[[-0.19647336]],[[0.109622225]],[[-0.30917174]],[[0.35844213]],[[-0.013357337]],[[0.11985237]],[[0.07856563]],[[-0.108310595]],[[-0.1342378]],[[-0.021741481]],[[0.025399718]],[[0.07222157]],[[0.18586828]],[[0.17234513]],[[0.14379776]],[[0.086121246]],[[-0.027796151]],[[0.051257055]],[[0.11973227]],[[-0.139496]],[[-0.17247407]],[[-0.014360695]],[[-0.1809795]],[[0.25387898]],[[0.14048696]],[[0.24833183]],[[0.058119994]],[[0.15705183]],[[0.115919314]],[[0.11513597]],[[-0.13388859]],[[-0.25966424]],[[0.13349937]],[[-0.02897296]],[[-0.20637242]],[[-0.09465221]],[[0.123695254]],[[-0.030742945]],[[-0.18898906]],[[0.14451271]],[[0.3589217]],[[0.08217101]],[[0.012650917]],[[-0.34668884]],[[0.025958594]],[[-0.030272644]],[[0.08159318]],[[0.003867604]],[[0.33155313]],[[-0.4109341]],[[-0.20860003]],[[-0.4057715]],[[-0.04307075]],[[-0.17965524]],[[0.0076353587]],[[0.3576232]],[[0.16770571]],[[-0.3338981]],[[-0.068745255]],[[-0.023919573]],[[-0.17629094]],[[0.18132113]],[[-0.021358768]],[[-0.088613436]],[[0.2426265]],[[0.1120572]],[[0.048035182]],[[0.11991448]],[[-0.5420278]],[[0.31981665]],[[-0.14582676]],[[-0.0049300925]],[[0.045772918]],[[0.123612955]],[[0.24199075]],[[0.28759778]],[[0.16991803]],[[-0.058198217]],[[0.27606183]],[[0.23427641]],[[0.031570625]],[[-0.24481876]],[[-0.16700545]],[[0.008177831]],[[0.06046776]],[[0.037314426]],[[-0.026467215]],[[-0.00021471779]],[[-0.12018284]],[[0.36521184]],[[-0.005821653]],[[-0.21836679]],[[0.14671923]]],[[[-0.41292876]],[[0.1148264]],[[-0.18684167]],[[-0.23528925]],[[0.06625924]],[[0.22633101]],[[0.12444812]],[[0.22986795]],[[0.41719797]],[[0.07627944]],[[0.030899268]],[[0.25859186]],[[0.3052418]],[[-0.2850381]],[[0.21766454]],[[-0.31062376]],[[0.091036946]],[[-0.002480931]],[[-0.09828625]],[[0.014304507]],[[0.2715488]],[[-0.049460534]],[[0.029244255]],[[-0.03714969]],[[0.18288973]],[[0.1699317]],[[0.116713904]],[[0.010690096]],[[0.06672308]],[[0.3691919]],[[0.27847278]],[[0.17648649]],[[0.05878456]],[[0.5853347]],[[-0.54510105]],[[-0.1495565]],[[-0.00091649103]],[[0.051714256]],[[0.16444589]],[[-0.45270383]],[[-0.1829887]],[[-0.04094441]],[[0.10319624]],[[-0.192568]],[[-0.027969545]],[[0.2789683]],[[0.13996029]],[[0.16504791]],[[-0.18999535]],[[0.23121338]],[[-0.03327239]],[[0.42751113]],[[-0.09407553]],[[-0.021337854]],[[-0.098802306]],[[0.45365918]],[[-0.6073316]],[[0.10755975]],[[0.08846913]],[[-0.09270225]],[[-0.12946884]],[[-0.28638604]],[[0.27352116]],[[-0.09194945]],[[0.34683508]],[[0.42959356]],[[0.14962892]],[[-0.087317705]],[[-0.1502636]],[[0.123731665]],[[-0.0028994044]],[[-0.1858173]],[[0.21267338]],[[-0.08029748]],[[-0.21663351]],[[-0.05624986]],[[-0.050435398]],[[0.018127521]],[[0.17465365]],[[-0.2928404]],[[-0.12859042]],[[0.08628713]],[[-0.21819901]],[[0.281593]],[[0.0008641681]],[[-0.2675301]],[[-0.18120745]],[[0.025376191]],[[-0.07234698]],[[0.16849679]],[[0.3501969]],[[-0.1322139]],[[-0.311931]],[[0.25015765]],[[-0.020318873]],[[0.11695759]]],[[[-0.097701095]],[[-0.1820879]],[[0.16191989]],[[-0.5928485]],[[0.2617961]],[[-0.26695037]],[[0.35599214]],[[0.25265184]],[[-0.14398438]],[[-0.12887895]],[[0.09223013]],[[-0.09999695]],[[-0.29802462]],[[-0.030830564]],[[-0.0007020367]],[[0.0101837665]],[[0.27961388]],[[-0.10647781]],[[-0.14645384]],[[-0.22815773]],[[0.17139804]],[[-0.15655519]],[[-0.09965882]],[[-0.13021794]],[[0.20938395]],[[-0.05840277]],[[0.14538407]],[[0.095074266]],[[-0.19291596]],[[-0.29784733]],[[0.07152635]],[[-0.041363705]],[[0.022526555]],[[-0.29934952]],[[0.17293845]],[[-0.07451394]],[[0.077208735]],[[0.031883307]],[[-0.23407513]],[[0.042614352]],[[-0.12597118]],[[0.08708965]],[[0.29121795]],[[-0.07525662]],[[0.20269181]],[[0.14170238]],[[0.16874704]],[[-0.12377472]],[[-0.032929245]],[[-0.26420537]],[[-0.07084627]],[[0.0014886156]],[[0.054103468]],[[-0.044718646]],[[-0.0076859626]],[[-0.3344194]],[[-0.013150148]],[[0.1881557]],[[-0.13021688]],[[-0.18115412]],[[0.07449537]],[[-0.047778856]],[[-0.18372045]],[[0.0030025807]],[[-0.2435293]],[[-0.2937179]],[[0.057274956]],[[-0.01328234]],[[0.25189182]],[[0.009982625]],[[0.25638026]],[[-0.24270953]],[[0.18773949]],[[0.031348705]],[[0.23620163]],[[-0.2165828]],[[0.18687019]],[[0.23115607]],[[0.15364476]],[[0.36885265]],[[-0.043763075]],[[0.063421965]],[[-0.11303941]],[[0.14049554]],[[0.13561346]],[[0.056276336]],[[-0.023723572]],[[-0.14070648]],[[-0.21615335]],[[0.20506129]],[[-0.2556489]],[[-0.14821322]],[[0.15162264]],[[0.5274052]],[[0.14769503]],[[0.11006068]]],[[[0.2355562]],[[-0.015818335]],[[-0.30793288]],[[-0.15818936]],[[-0.06430203]],[[0.13503355]],[[-0.16158439]],[[-0.0031728735]],[[-0.4565261]],[[0.13023953]],[[0.032567333]],[[0.35857424]],[[-0.03672844]],[[-0.0044136844]],[[-0.15716743]],[[0.0010437951]],[[0.026878329]],[[0.18718581]],[[0.213671]],[[0.32672653]],[[0.47182575]],[[0.10828509]],[[0.23140617]],[[0.23107988]],[[0.019030087]],[[0.10630493]],[[-0.44211918]],[[0.03183439]],[[0.13021398]],[[-0.15998389]],[[0.066366136]],[[0.15075956]],[[-0.022726323]],[[-0.276505]],[[0.61765134]],[[0.023512285]],[[-0.12255798]],[[-0.07290725]],[[0.06546135]],[[-0.09852341]],[[0.2510272]],[[-0.061775185]],[[-0.00030456667]],[[-0.10915087]],[[0.020919235]],[[0.30021]],[[0.1974696]],[[0.09225528]],[[-0.047082875]],[[-0.23986784]],[[-0.00806669]],[[-0.089739844]],[[-0.008304735]],[[0.25088733]],[[-0.2841589]],[[-0.26602367]],[[0.1457713]],[[0.22034405]],[[-0.041678004]],[[0.13019264]],[[-0.2021193]],[[-0.19295251]],[[0.07935197]],[[-0.015568]],[[-0.2745134]],[[-0.26850232]],[[-0.18469124]],[[0.07392006]],[[0.09685801]],[[-0.065555185]],[[0.114741415]],[[-0.20645817]],[[-0.4585506]],[[-0.18978252]],[[0.00022677306]],[[0.17763253]],[[0.076249905]],[[-0.021829283]],[[-0.44849274]],[[-0.13796176]],[[0.5586723]],[[0.15295309]],[[-0.03060426]],[[0.1543869]],[[-0.37250233]],[[-0.2967984]],[[-0.0031605978]],[[-0.38985175]],[[-0.033832]],[[-0.054292865]],[[0.03281812]],[[-0.16814594]],[[-0.14075704]],[[0.3087252]],[[-0.16518272]],[[-0.19936864]]],[[[0.11480639]],[[-0.027051944]],[[0.073453724]],[[0.33369184]],[[0.022001052]],[[-0.26622903]],[[0.0023610236]],[[0.051529326]],[[-0.14043695]],[[-0.07655152]],[[0.3281861]],[[0.049929585]],[[0.1759476]],[[0.21398471]],[[-0.061458107]],[[0.16314346]],[[0.1676018]],[[0.2739917]],[[-0.0021130275]],[[-0.3510072]],[[0.22774622]],[[-0.14025952]],[[0.138787]],[[0.1311844]],[[-0.17412362]],[[-0.3450886]],[[-0.013764864]],[[0.07334914]],[[-0.17034636]],[[0.12424036]],[[-0.23038307]],[[-0.07242798]],[[-0.07286376]],[[0.03761927]],[[-0.04590241]],[[-0.3011104]],[[-0.049337033]],[[-0.36393714]],[[0.17452362]],[[0.31003466]],[[0.09066103]],[[0.255942]],[[-0.12014455]],[[-0.4813023]],[[-0.16765894]],[[-0.43586513]],[[0.04099538]],[[0.019758804]],[[0.16637881]],[[0.2587556]],[[0.12685569]],[[-0.3000034]],[[-0.20353466]],[[-0.18079458]],[[-0.2023917]],[[0.1847267]],[[0.24323608]],[[0.15784393]],[[-0.27510384]],[[0.12605464]],[[-0.20599891]],[[-0.16520983]],[[-0.014707025]],[[-0.1909873]],[[-0.01024994]],[[0.16062507]],[[-0.01376327]],[[0.12119299]],[[0.19694474]],[[0.039036345]],[[0.2080145]],[[-0.15254956]],[[-0.1450981]],[[-0.30314]],[[-0.12127242]],[[-0.1670804]],[[0.13652526]],[[-0.20339982]],[[-0.2436772]],[[-0.054351952]],[[0.10178447]],[[-0.034095585]],[[-0.3388652]],[[-0.36363912]],[[0.19871452]],[[0.24232087]],[[0.23574062]],[[0.31072983]],[[0.11635615]],[[-0.2859035]],[[0.014414308]],[[0.18823352]],[[0.36141244]],[[0.4334582]],[[-0.016083516]],[[-0.16020381]]],[[[0.22735876]],[[-0.26959953]],[[0.035863467]],[[0.036713373]],[[0.07875971]],[[-0.11438402]],[[-0.2278578]],[[0.09128351]],[[-0.25425744]],[[0.34964997]],[[0.005559859]],[[-0.18021758]],[[0.047246974]],[[0.030386303]],[[-0.020820182]],[[-0.15829836]],[[-0.01050811]],[[0.010680611]],[[-0.049792524]],[[-0.08450639]],[[-0.11400756]],[[0.183107]],[[0.065255575]],[[0.073756844]],[[0.12610072]],[[0.59877944]],[[0.08134023]],[[0.029260704]],[[0.014512315]],[[-0.05858694]],[[-0.082178764]],[[0.21030492]],[[0.49939722]],[[-0.18948065]],[[0.4658974]],[[0.5860378]],[[0.080818996]],[[-0.2637891]],[[0.043134287]],[[0.049621966]],[[0.24328206]],[[0.050127428]],[[0.23689122]],[[0.30754167]],[[0.5173878]],[[0.12047556]],[[0.059517466]],[[0.095000885]],[[0.03262413]],[[-0.13337179]],[[0.03374165]],[[0.24588229]],[[0.06515204]],[[0.10884301]],[[0.00567175]],[[0.009236022]],[[-0.13263303]],[[-0.017028408]],[[0.36915514]],[[-0.017306894]],[[0.101524495]],[[-0.020240035]],[[0.082087606]],[[0.087974645]],[[-0.058172625]],[[0.07020359]],[[-0.15199122]],[[0.015743187]],[[0.04267604]],[[0.39660612]],[[-0.029207697]],[[-0.022252193]],[[0.18259497]],[[-0.24035585]],[[0.004146628]],[[-0.06909636]],[[0.061718322]],[[-0.022376262]],[[0.15613995]],[[-0.09130909]],[[0.10085872]],[[-0.15365778]],[[-0.13451228]],[[0.14248215]],[[0.08234585]],[[-0.119404554]],[[0.050289825]],[[-0.4718565]],[[0.08194044]],[[0.2131806]],[[0.109598175]],[[-0.192597]],[[-0.67771775]],[[0.028851662]],[[-0.11644464]],[[0.0061559863]]],[[[0.05481004]],[[0.03552283]],[[-0.09499139]],[[-0.2460569]],[[-0.11167388]],[[0.23475693]],[[-0.18954125]],[[-0.20693578]],[[0.047626387]],[[-0.027751204]],[[0.0005665622]],[[0.1682577]],[[-0.015646355]],[[0.13208753]],[[-0.062155295]],[[-0.09407435]],[[-0.057071492]],[[-0.387475]],[[0.120368935]],[[0.105409086]],[[-0.38846475]],[[0.20251244]],[[-0.16642034]],[[-0.15006202]],[[-0.081276596]],[[0.015174857]],[[-0.07325346]],[[0.07119341]],[[-0.064179674]],[[0.12475108]],[[0.048650216]],[[0.011117411]],[[0.016288023]],[[0.017165173]],[[-0.056257877]],[[0.038847253]],[[0.08788363]],[[-0.00621322]],[[-0.08344353]],[[0.3599447]],[[0.08967102]],[[-0.19002771]],[[-0.042156376]],[[0.06430959]],[[-0.06345619]],[[-0.05723073]],[[0.09547889]],[[0.007822217]],[[-0.013391777]],[[0.119044885]],[[0.16726896]],[[0.11121011]],[[-0.19740973]],[[0.13104966]],[[-0.21128295]],[[0.08714274]],[[0.0030137263]],[[0.7551608]],[[0.15149273]],[[0.097392574]],[[0.17323957]],[[-0.09661869]],[[-0.028893275]],[[0.124307096]],[[0.19631414]],[[0.092898875]],[[-0.10718311]],[[-0.21481112]],[[-0.03284778]],[[0.0011916998]],[[0.07806422]],[[0.15786281]],[[-0.112054594]],[[-0.14823695]],[[-0.19105008]],[[0.12049479]],[[-0.027576746]],[[0.20701654]],[[-0.14770524]],[[-0.024393886]],[[0.18377256]],[[0.27906102]],[[-0.0025471528]],[[-0.0011629625]],[[0.060100358]],[[0.75111526]],[[-0.00056713]],[[-0.008570089]],[[-0.292376]],[[-0.0050530615]],[[0.00980757]],[[0.11539915]],[[-0.16976336]],[[0.1184184]],[[0.02538247]],[[-0.08713178]]],[[[-0.01572264]],[[0.27476966]],[[0.063775316]],[[-0.2747549]],[[0.1276311]],[[-0.031387016]],[[-0.4950116]],[[0.6945019]],[[-0.33419845]],[[0.0069390913]],[[-0.18108466]],[[-0.2125754]],[[-0.22877093]],[[-0.052367907]],[[-0.030438386]],[[0.105703965]],[[0.15558699]],[[-0.3454629]],[[0.1127989]],[[-0.1959919]],[[-0.027859261]],[[0.08432679]],[[-0.028228905]],[[0.090412155]],[[-0.09710078]],[[0.2452699]],[[-0.080930635]],[[0.20330621]],[[0.18298805]],[[-0.2122485]],[[-0.1337184]],[[-0.11620247]],[[-0.2283126]],[[0.00465494]],[[0.3934981]],[[-0.114700876]],[[0.14788555]],[[-0.16484877]],[[-0.015821371]],[[-0.39685133]],[[-0.05642965]],[[-0.079163596]],[[-0.030811643]],[[0.006771648]],[[-0.28644216]],[[-0.048390463]],[[-0.3247872]],[[-0.18974864]],[[0.03580613]],[[-0.10761794]],[[-0.007645032]],[[-0.5947124]],[[-0.5628511]],[[-0.3081102]],[[0.076458275]],[[-0.007846091]],[[0.38331765]],[[0.18161756]],[[0.04515461]],[[-0.318303]],[[-0.04129338]],[[0.19150358]],[[-0.26549068]],[[-0.14277892]],[[-0.2271021]],[[-0.0431779]],[[0.06594159]],[[-0.00023820072]],[[-0.4705933]],[[-0.27080315]],[[-0.24564072]],[[-0.07271623]],[[-0.0987046]],[[-0.043314606]],[[0.074171595]],[[0.13105081]],[[-0.007891638]],[[0.03847854]],[[-0.1364358]],[[-0.4805213]],[[0.062757626]],[[-0.18925984]],[[0.22429927]],[[-0.10637696]],[[-0.1770908]],[[-0.30452687]],[[0.015043153]],[[0.038428925]],[[-0.015557509]],[[-0.012213446]],[[-0.22293052]],[[0.07178222]],[[-0.4224062]],[[0.17875645]],[[-0.16094068]],[[0.012458721]]],[[[0.06382249]],[[-0.039799344]],[[0.14788795]],[[0.12996694]],[[0.21603578]],[[-0.24262777]],[[-0.14802088]],[[-0.15000595]],[[0.04230179]],[[0.051933393]],[[0.15871276]],[[0.057744145]],[[-0.100702085]],[[0.18036224]],[[-0.08221517]],[[0.26766086]],[[-0.027020818]],[[0.03947529]],[[0.11195676]],[[0.16755836]],[[0.22412354]],[[0.103677556]],[[0.092419215]],[[0.119294696]],[[-0.25554842]],[[0.45051113]],[[0.051573727]],[[0.15621331]],[[-0.036035813]],[[-0.08156667]],[[-0.22886096]],[[-0.24881297]],[[-0.0219442]],[[-0.20875852]],[[-0.33588544]],[[0.1980573]],[[-0.109111756]],[[0.22175083]],[[0.1046759]],[[0.1535153]],[[-0.04002182]],[[-0.0049282843]],[[-0.18984345]],[[0.07782314]],[[0.14115925]],[[-0.20565923]],[[-0.004210098]],[[-0.13996923]],[[0.042721108]],[[0.12678225]],[[0.21281329]],[[-0.43846563]],[[0.006116507]],[[0.061992228]],[[-0.15117586]],[[0.058431868]],[[0.38328895]],[[0.10967287]],[[0.04126741]],[[-0.040437177]],[[-0.39737025]],[[-0.3476138]],[[-0.2552327]],[[-0.0062159924]],[[-0.25416347]],[[0.058400717]],[[0.03200217]],[[-0.05340642]],[[-0.06479918]],[[0.025148619]],[[-0.032652877]],[[-0.0039112065]],[[-0.04471999]],[[0.12724702]],[[0.05271266]],[[0.0036606675]],[[-0.0058448073]],[[-0.09259317]],[[0.009868742]],[[0.30588904]],[[-0.031184673]],[[0.17256501]],[[0.18725595]],[[-0.47770423]],[[-0.112070136]],[[-0.05120985]],[[0.059518132]],[[0.6728085]],[[-0.108193465]],[[-0.27692196]],[[-0.22202976]],[[0.25404745]],[[-0.65079075]],[[0.22001673]],[[0.10559968]],[[0.12815052]]],[[[-0.004116497]],[[-0.0069142655]],[[-0.06268763]],[[0.08721693]],[[0.044424035]],[[-0.17859441]],[[0.043860003]],[[-0.034660257]],[[0.1118998]],[[-0.09709875]],[[0.15792724]],[[-0.22776319]],[[-0.07614859]],[[-0.046800785]],[[0.12242895]],[[0.0255864]],[[-0.048513133]],[[-0.12376456]],[[0.094207905]],[[0.16552144]],[[-0.7505177]],[[-0.091334194]],[[-0.05337514]],[[-0.11277257]],[[-0.059076868]],[[-0.020622786]],[[-0.08553853]],[[0.06661022]],[[-0.027565073]],[[0.0058925166]],[[-0.027373051]],[[0.09839231]],[[-0.017440327]],[[0.22256464]],[[-0.16129048]],[[-0.1503517]],[[0.25633696]],[[-0.102537945]],[[-0.10818974]],[[-0.09103438]],[[0.08243682]],[[0.18008865]],[[0.021082351]],[[-0.12801372]],[[-0.052933242]],[[0.21976344]],[[-0.0069655315]],[[0.13087955]],[[0.11719387]],[[-0.035289858]],[[0.13375416]],[[0.01181269]],[[0.07515869]],[[0.09789523]],[[-0.35666335]],[[-0.061848614]],[[-0.09911379]],[[0.5668807]],[[-0.04799067]],[[0.04902456]],[[0.0064290296]],[[0.102878146]],[[-0.0041947644]],[[-0.07084308]],[[0.037352905]],[[-0.07882058]],[[0.20092931]],[[0.06744629]],[[-0.028747506]],[[-0.008891495]],[[0.228397]],[[-0.011914094]],[[-0.093460865]],[[-0.12408911]],[[-0.040636156]],[[0.04370562]],[[-0.065115124]],[[-0.024192328]],[[0.020785648]],[[-0.12899762]],[[-0.16563389]],[[-0.050226968]],[[-0.09844692]],[[0.17564581]],[[-0.33990806]],[[-0.41213208]],[[0.068568096]],[[0.066017926]],[[-0.30152333]],[[-0.0640371]],[[-0.038253985]],[[-0.19247393]],[[-0.03499543]],[[-0.14283736]],[[0.05124636]],[[-0.008261913]]],[[[-0.05204487]],[[0.115521125]],[[0.04743496]],[[0.6496405]],[[0.010557601]],[[0.03299446]],[[0.08815803]],[[0.102350995]],[[-0.0434282]],[[-0.08624746]],[[-0.10193115]],[[-0.18046573]],[[-0.11633237]],[[-0.11051192]],[[0.11179587]],[[0.046707593]],[[-0.04998338]],[[-0.2145822]],[[-0.020715548]],[[-0.05972933]],[[-0.19272909]],[[-0.089461304]],[[-0.061273277]],[[-0.06309061]],[[0.100774035]],[[-0.04408751]],[[0.13961557]],[[-0.019574227]],[[0.52278054]],[[-0.031510845]],[[0.15801947]],[[0.036072113]],[[-0.18314597]],[[0.015889306]],[[-0.002373562]],[[-0.12612385]],[[-0.5231819]],[[0.030856224]],[[-0.044697795]],[[0.120990954]],[[0.025131734]],[[-0.59637135]],[[0.0991656]],[[-0.18870634]],[[-0.039036177]],[[-0.057919048]],[[-0.022348048]],[[0.007149497]],[[-0.030115025]],[[0.03972283]],[[0.15958995]],[[0.03404269]],[[0.16349202]],[[-0.11879871]],[[-0.37503737]],[[0.1514213]],[[-0.11958016]],[[0.16864653]],[[-0.28821853]],[[-0.15751407]],[[0.1857933]],[[0.20041591]],[[-0.14610745]],[[0.09707039]],[[-0.10922115]],[[0.1314543]],[[-0.08544713]],[[-0.049892485]],[[-0.04866891]],[[-0.015246592]],[[-0.39394242]],[[0.099462844]],[[0.11282697]],[[-0.06683441]],[[0.15122882]],[[0.0716033]],[[0.08639864]],[[-0.19184408]],[[0.15941778]],[[0.25575724]],[[-0.1546672]],[[0.33012465]],[[0.0554084]],[[0.044605218]],[[-0.20857453]],[[-0.01855141]],[[0.049568094]],[[-0.06574218]],[[0.07888995]],[[0.12788968]],[[-0.11473218]],[[0.026492493]],[[-0.0678683]],[[0.22312088]],[[-0.39359546]],[[0.1156045]]],[[[0.10162178]],[[-0.08362754]],[[-0.32386836]],[[-0.27725595]],[[-0.029702598]],[[0.07937668]],[[0.14933823]],[[0.64332056]],[[-0.14277561]],[[0.365539]],[[-0.17063303]],[[0.2950069]],[[0.5533912]],[[0.059513047]],[[0.17714565]],[[0.16251792]],[[-0.10969704]],[[-0.14424996]],[[0.18625972]],[[-0.17881133]],[[-0.24774288]],[[-0.2502954]],[[0.50438535]],[[0.55087775]],[[-0.05899223]],[[0.10260127]],[[-0.07978093]],[[-0.32364842]],[[-0.068695925]],[[0.2943563]],[[0.01613662]],[[0.058265224]],[[-0.111991845]],[[0.00024450055]],[[0.1476575]],[[0.049670935]],[[-0.008584554]],[[-0.012397576]],[[0.58415496]],[[-0.2438616]],[[0.15618849]],[[0.072327286]],[[-0.417348]],[[-0.046776373]],[[0.014964872]],[[-0.25862134]],[[-0.37088892]],[[0.32151088]],[[0.1731645]],[[0.34724817]],[[-0.16354634]],[[-0.1854595]],[[-0.024768524]],[[-0.13698518]],[[0.08474927]],[[0.43705955]],[[0.09915543]],[[0.1315404]],[[-0.09079317]],[[-0.09166621]],[[0.041375384]],[[0.0022740797]],[[0.32888946]],[[0.071471386]],[[-0.2281725]],[[0.40037853]],[[0.16291778]],[[-0.009812823]],[[0.05860374]],[[-0.03760082]],[[0.10567796]],[[0.4585231]],[[-0.16026129]],[[-0.00036131227]],[[-0.04552343]],[[0.47891724]],[[0.20248443]],[[0.08952961]],[[-0.21228929]],[[0.30121866]],[[0.12263267]],[[-0.19510229]],[[0.13079508]],[[-0.3098486]],[[0.019747557]],[[-0.20318645]],[[0.24947166]],[[0.037878122]],[[-0.097900525]],[[-0.27972028]],[[0.41633567]],[[0.005985888]],[[-0.13001083]],[[-0.1250208]],[[-0.0795652]],[[-0.2752529]]],[[[-0.34803283]],[[0.13201018]],[[0.08362184]],[[-0.03487031]],[[0.1705504]],[[0.062650986]],[[-0.09363327]],[[0.015381734]],[[0.12115997]],[[-0.048793998]],[[0.030416012]],[[0.09410421]],[[-0.0025741765]],[[-0.08559243]],[[-0.059565026]],[[0.07911441]],[[-0.28043652]],[[-0.059200775]],[[0.38523883]],[[0.42878985]],[[-0.1522553]],[[0.08002011]],[[0.17904133]],[[0.1503472]],[[0.20614333]],[[-0.26620823]],[[0.32149497]],[[-0.037224136]],[[-0.1306843]],[[-0.09308616]],[[-0.044374853]],[[-0.03967393]],[[0.15412237]],[[-0.012059882]],[[-0.2754537]],[[0.04714563]],[[0.088059]],[[-0.09664042]],[[0.10113475]],[[-0.062725365]],[[-0.32944202]],[[0.028905395]],[[0.16877177]],[[-0.002126628]],[[0.042294033]],[[0.039250467]],[[0.016873442]],[[-0.14117806]],[[-0.074997194]],[[-0.109229386]],[[0.015050973]],[[-0.012073006]],[[-0.15700714]],[[-0.060559493]],[[0.09458063]],[[-0.16783933]],[[0.048272826]],[[-0.23231374]],[[-0.054422483]],[[-0.27708608]],[[-0.045015436]],[[0.22284904]],[[0.040611394]],[[-0.07779659]],[[-0.26564512]],[[-0.1410054]],[[-0.09106428]],[[0.13660613]],[[0.13785928]],[[0.03508219]],[[-0.08464183]],[[0.2895691]],[[0.29693907]],[[-0.08249754]],[[0.28577358]],[[0.4453532]],[[0.17861745]],[[0.061427817]],[[0.4259814]],[[-0.08642307]],[[-0.3015231]],[[-0.14140911]],[[-0.05002811]],[[0.005066562]],[[-0.4962498]],[[0.24885368]],[[-0.09313816]],[[0.19881259]],[[0.13646251]],[[0.18384184]],[[-0.033314534]],[[-0.086890705]],[[0.438755]],[[0.022867214]],[[0.021349754]],[[0.20623796]]],[[[-0.0052192244]],[[-0.07743978]],[[-0.1401768]],[[-0.021411944]],[[0.36771104]],[[0.07558157]],[[-0.3149862]],[[0.42116922]],[[0.12728067]],[[-0.20668918]],[[0.090706415]],[[-0.057877358]],[[-0.15454376]],[[0.06439545]],[[0.18050084]],[[-0.34671354]],[[0.10740768]],[[0.1951305]],[[0.34210983]],[[0.16619371]],[[0.32417122]],[[0.05700693]],[[-0.45309812]],[[-0.47211394]],[[0.010902088]],[[0.09467245]],[[-0.106439844]],[[0.040101886]],[[-0.025951626]],[[0.07437458]],[[0.21269824]],[[0.14146128]],[[-0.10344974]],[[0.08582382]],[[-0.1567658]],[[0.054286737]],[[0.05309866]],[[-0.16262594]],[[-0.3864022]],[[-0.3165918]],[[0.2568924]],[[0.28368953]],[[-0.069767095]],[[-0.10926307]],[[0.049388252]],[[0.20875604]],[[-0.23551346]],[[0.14017592]],[[0.108098276]],[[-0.05580867]],[[0.10601494]],[[0.34591702]],[[-0.22739659]],[[0.14116544]],[[0.09617937]],[[-0.07999268]],[[-0.255909]],[[-0.18269493]],[[-0.13850126]],[[-0.05319214]],[[0.10990682]],[[-0.04471478]],[[-0.02978]],[[0.043710135]],[[0.35529873]],[[-0.07463992]],[[0.2449014]],[[-0.07661829]],[[0.011939719]],[[0.0022861906]],[[0.097988226]],[[0.34867334]],[[-0.05625363]],[[-0.2644813]],[[-0.30120984]],[[0.2428873]],[[-0.035265233]],[[-0.2496415]],[[-0.046885747]],[[0.2722226]],[[0.0078784255]],[[-0.15154503]],[[0.13826]],[[0.29967767]],[[-0.17967242]],[[0.032437585]],[[0.04525156]],[[-0.1430387]],[[0.0438447]],[[0.049246415]],[[-0.029765258]],[[0.042988237]],[[-0.2246325]],[[0.27793494]],[[0.031980157]],[[0.005118296]]],[[[0.012552777]],[[-0.007948551]],[[-0.3736703]],[[0.27160567]],[[-0.1148919]],[[-0.01274781]],[[-0.01195587]],[[-0.05551596]],[[0.039637968]],[[0.04945293]],[[0.1406976]],[[0.08666313]],[[0.007147921]],[[-0.2835809]],[[-0.33329836]],[[-0.09986969]],[[0.23593383]],[[-0.1753794]],[[-0.007610721]],[[0.032177344]],[[-0.2103718]],[[-0.10211089]],[[-0.14645131]],[[-0.16078715]],[[-0.09550307]],[[0.22747351]],[[-0.24959657]],[[0.18569691]],[[-0.24705596]],[[0.2383463]],[[0.53094816]],[[-0.18039976]],[[-0.17891575]],[[0.02368272]],[[-0.061045192]],[[-0.10460776]],[[0.30913636]],[[0.025921997]],[[-0.078448795]],[[0.4229162]],[[0.16844255]],[[0.057989955]],[[0.08173193]],[[-0.10308644]],[[-0.056058716]],[[0.18173763]],[[0.10832997]],[[-0.27698347]],[[-0.36634678]],[[0.22101186]],[[0.2644987]],[[0.071352]],[[0.06145847]],[[-0.21418953]],[[0.13818869]],[[0.21554263]],[[-0.15711695]],[[-0.1319359]],[[-0.12112208]],[[0.06802023]],[[0.1708482]],[[0.047385912]],[[0.05378977]],[[0.24874759]],[[0.0997238]],[[0.17914796]],[[-0.13005139]],[[0.21677484]],[[-0.19485736]],[[-0.04119499]],[[-0.3157777]],[[-0.3166859]],[[-0.35149944]],[[0.11008558]],[[-0.11601454]],[[0.16970032]],[[0.0018190586]],[[0.014175053]],[[-0.38226178]],[[0.2478705]],[[0.28188178]],[[-0.32302517]],[[0.0139278835]],[[0.20607437]],[[-0.2526219]],[[0.137497]],[[-0.34238458]],[[0.06667132]],[[0.17077649]],[[-0.050941825]],[[0.11445823]],[[-0.17234312]],[[-0.58066446]],[[0.07996243]],[[0.22038546]],[[-0.25271374]]],[[[0.044518206]],[[-0.118455924]],[[-0.11753934]],[[0.52667516]],[[-0.18223682]],[[-0.07134359]],[[0.18294275]],[[0.2320785]],[[0.047427244]],[[-0.00023791353]],[[0.057758152]],[[0.08419813]],[[-0.13886476]],[[-0.19892763]],[[-0.13476357]],[[-0.023255158]],[[-0.17945017]],[[0.22778352]],[[0.11130049]],[[-0.13764545]],[[-0.19079256]],[[-0.0025239626]],[[0.04849197]],[[-0.0071375133]],[[0.11985782]],[[0.17964768]],[[-0.06677339]],[[-0.07670136]],[[0.08292759]],[[-0.104190275]],[[-0.040232424]],[[0.017948966]],[[0.085584566]],[[0.22816968]],[[-0.18822524]],[[-0.10407639]],[[-0.032787144]],[[-0.12883087]],[[-0.038576208]],[[-0.23859438]],[[-0.0011718356]],[[-0.05234538]],[[0.06502405]],[[0.0912522]],[[0.03877409]],[[0.30630282]],[[-0.21872656]],[[-0.15290986]],[[-0.28943753]],[[-0.14487632]],[[0.025608106]],[[0.18650201]],[[-0.40907314]],[[-0.005600349]],[[-0.05465998]],[[-0.15154502]],[[-0.17326052]],[[-0.07094759]],[[0.3143906]],[[0.08066037]],[[-0.20593752]],[[-0.6490754]],[[-0.058787156]],[[-0.21198796]],[[0.029619537]],[[-0.1407688]],[[-0.076937884]],[[0.049936827]],[[0.09970529]],[[-0.029788194]],[[-0.031973343]],[[0.48956573]],[[0.017056072]],[[-0.059804223]],[[-0.079533935]],[[-0.035494022]],[[-0.03765004]],[[0.002821303]],[[0.113439165]],[[-0.02255255]],[[0.075854]],[[0.019126032]],[[-0.13750711]],[[0.13543716]],[[0.20485389]],[[0.41535082]],[[-0.17586131]],[[-0.1018135]],[[0.21162578]],[[0.13759206]],[[-0.095534116]],[[-0.18150282]],[[-0.26700193]],[[-0.011061344]],[[-0.042832065]],[[0.039244555]]],[[[0.2066181]],[[-0.11448393]],[[0.07652635]],[[-0.21522294]],[[0.01874386]],[[0.017899567]],[[-0.12929901]],[[0.042961307]],[[-0.23795675]],[[0.014049138]],[[-0.15450905]],[[-0.05370674]],[[-0.016562287]],[[-0.07079836]],[[-0.0953063]],[[0.0000051388224]],[[-0.11249863]],[[-0.017612882]],[[0.1996461]],[[-0.06515929]],[[0.0014301916]],[[-0.15953344]],[[-0.10380855]],[[-0.14114928]],[[0.01712588]],[[0.18828806]],[[0.051734712]],[[-0.073725]],[[-0.1470911]],[[0.010611947]],[[0.16058855]],[[-0.118960746]],[[0.13747844]],[[-0.05376252]],[[0.23413882]],[[0.14193316]],[[-0.06457713]],[[0.27964523]],[[-0.048290476]],[[-0.11125952]],[[0.2759556]],[[-0.1300774]],[[-0.046293292]],[[-0.25197545]],[[0.23198815]],[[-0.34762353]],[[-0.14492774]],[[-0.112614475]],[[-0.11684582]],[[0.08338612]],[[-0.18693748]],[[0.30144066]],[[-0.20339404]],[[-0.2553864]],[[-0.00059922214]],[[0.29685286]],[[-0.3797179]],[[0.14989999]],[[-0.09573206]],[[0.005505075]],[[-0.35586324]],[[0.120482996]],[[-0.13261978]],[[-0.2997203]],[[0.06828651]],[[0.3160001]],[[-0.10386949]],[[-0.0149515625]],[[0.0018551209]],[[0.38279134]],[[0.074880235]],[[0.06843215]],[[0.13457148]],[[0.3651614]],[[0.00053836853]],[[0.008108243]],[[-0.04417266]],[[0.27600497]],[[0.15010634]],[[0.050901845]],[[0.09544613]],[[0.3112558]],[[-0.19351104]],[[-0.17528266]],[[-0.19159582]],[[0.02309989]],[[-0.009576079]],[[-0.26342285]],[[-0.10312627]],[[0.08281025]],[[-0.07424518]],[[0.17894688]],[[-0.26848915]],[[-0.3351494]],[[0.07497907]],[[0.21341573]]],[[[-0.097052105]],[[-0.15393156]],[[0.23322272]],[[0.15720035]],[[0.19027853]],[[0.2937688]],[[0.2948547]],[[0.12277936]],[[-0.18003015]],[[0.11386356]],[[0.17396432]],[[-0.023936654]],[[0.060528837]],[[-0.026700594]],[[0.07187536]],[[0.013775921]],[[0.20124546]],[[0.043364856]],[[0.02064428]],[[0.14879413]],[[0.10940727]],[[-0.23074584]],[[0.047268886]],[[0.09639472]],[[-0.071600124]],[[0.36901557]],[[0.13911481]],[[0.08094799]],[[0.07987018]],[[-0.15138222]],[[-0.20777398]],[[-0.24458426]],[[0.21617216]],[[-0.11059103]],[[0.24643227]],[[0.0664543]],[[-0.15026636]],[[0.19017747]],[[0.025449824]],[[-0.21350652]],[[-0.02225591]],[[-0.021474143]],[[-0.14875236]],[[-0.024145974]],[[0.20906076]],[[-0.27113128]],[[-0.3059229]],[[-0.09607843]],[[0.091275565]],[[-0.12593107]],[[0.20930177]],[[-0.10046156]],[[-0.31084818]],[[-0.36297783]],[[-0.16539843]],[[-0.031459242]],[[0.14593199]],[[-0.01894909]],[[0.21381326]],[[0.20820913]],[[0.58499885]],[[0.6947778]],[[-0.007508554]],[[-0.47795293]],[[-0.115996234]],[[-0.007511961]],[[0.1479919]],[[-0.0159207]],[[0.06730858]],[[0.22937945]],[[-0.019600281]],[[0.1533836]],[[0.08302343]],[[0.09261398]],[[0.061394636]],[[-0.1046136]],[[0.13468274]],[[-0.18217866]],[[0.011343198]],[[-0.14194843]],[[0.034179233]],[[0.12275011]],[[-0.19087416]],[[-0.11322632]],[[-0.2456905]],[[-0.41167256]],[[0.04192043]],[[-0.1237211]],[[-0.05499106]],[[-0.1595126]],[[-0.021899499]],[[0.077607736]],[[-0.40923816]],[[0.28975964]],[[0.37066126]],[[0.084403835]]]],"info":{"o_pg":24,"i_pg":96,"s":[1,1],"k":[1,1],"i":[96,56,56],"o":[24,56,56]},"bias":[-1.1659276,0.5085876,-0.70075923,-0.19276367,-0.09885267,-0.7304509,-0.42463583,0.18556558,-0.19579896,0.00464617,0.023774544,0.40670833,0.13766076,1.8024238,1.3056412,0.8206074,0.19949612,-0.19392128,-0.4849915,0.13107684,0.34517848,0.28095976,0.14954546,0.12809321]}},"4":{"ReLU6":{"input_shape":[1,32,112,112]}},"3":{"Convolution":{"w":[[[[-0.074094094,-0.08878881,-0.072442636],[-0.14943102,0.030931568,0.83656657],[-0.08343417,-0.06836482,0.06122795]]],[[[0.046540305,-0.13410461,0.21824987],[-0.0072913324,-0.43157986,2.2852614],[0.105665214,0.30360365,-2.3983262]]],[[[0.013674585,-0.11942743,-0.60732627],[0.02179455,0.2502979,4.9677277],[-0.03585837,-0.2551973,-0.14674337]]],[[[-0.26900727,-0.20273298,-0.24815539],[0.18472846,2.3151665,-0.84094393],[-0.10130124,-0.11039051,-0.5377057]]],[[[1.413569,4.6055446,1.0671694],[0.5417566,1.0299364,0.41522023],[-2.078242,-5.18796,-1.8495516]]],[[[-0.11307784,0.38156903,-0.5627944],[0.56133246,1.0129738,-5.380828],[0.017600125,3.644306,0.72511363]]],[[[-0.022079483,0.60709673,-0.6307815],[0.09290327,-0.00691844,-5.994868],[-0.10494932,-0.41805252,6.685843]]],[[[-0.82886434,-0.42279884,1.3282287],[-4.0845275,-0.55155236,4.5792675],[-0.82434165,-0.28704795,1.0979576]]],[[[-0.1662696,0.63106525,-0.5170967],[0.11486858,-6.176548,0.99463755],[0.05063497,0.15965594,-0.20871891]]],[[[-0.0063976254,-0.0018034702,-0.0020287822],[-0.004202338,0.0020957566,-0.0005455068],[-0.010132069,-0.0045267846,-0.0021830313]]],[[[0.3894198,-0.41241962,-1.636565],[-0.640278,0.57315236,1.3640518],[-1.5252422,0.93464214,1.4665493]]],[[[0.50981843,4.3223305,2.7190864],[0.22294663,0.19967626,-0.33176807],[-0.89433295,-4.2702208,-2.611822]]],[[[-0.03863246,0.12086058,-0.08425416],[0.025371587,0.081852235,-2.2113156],[-0.10651244,0.06598591,2.7698746]]],[[[-0.77138203,-0.02943388,-1.3377297],[0.14704554,0.43214655,-1.4228477],[-1.4522924,-1.3853515,8.847148]]],[[[-0.0004005746,-0.0010272324,0.0025984612],[-0.0068280976,-0.0008115492,-0.00065112417],[-0.0060920254,-0.0038370749,-0.0035324495]]],[[[0.0020950097,-0.006205048,-0.0052304696],[-0.0022725204,-0.0070387777,-0.008853318],[-0.0012716705,-0.007182875,-0.007859759]]],[[[-0.03531453,-0.0269466,-0.019986212],[0.012665928,0.022978026,-0.0269104],[-0.0013166094,0.10607548,-0.010795715]]],[[[-0.007096711,0.00088798656,0.016266441],[-0.023282267,-0.011658815,0.013177054],[-0.009428369,-0.0037328561,0.0128689725]]],[[[1.5636108,-6.083611,1.6095718],[10.61799,-15.072827,8.215472],[-1.4251708,1.6497812,-1.137645]]],[[[0.32536888,-0.44546324,-1.2452174],[-1.1237739,0.79240984,2.0254683],[-0.45501605,0.29357558,0.27023134]]],[[[-0.21555692,0.040971313,-0.8236588],[-0.21241608,-0.34896806,-0.2824048],[-0.74946916,-0.6307335,5.058613]]],[[[0.061935257,-0.10463018,-0.10124531],[-0.1840737,-1.2225735,-0.5790227],[0.32366097,2.4584763,-2.085402]]],[[[0.19145446,-0.13560376,-0.74660844],[-0.3183334,0.09601408,0.7539407],[-0.5255883,0.18690325,0.79733133]]],[[[-0.0048462744,-0.0024940844,-0.0074406276],[-0.0010505699,-0.003376411,-0.009680761],[-0.01484674,-0.00068569917,0.014521089]]],[[[0.11843455,0.8094398,1.0356033],[0.43207717,-1.5604558,-0.3957081],[1.5228252,-0.692014,-2.2829614]]],[[[-0.31323436,0.060624678,0.19898291],[0.28251672,8.651054,-2.4912543],[-0.65841657,-0.5596107,-1.2072349]]],[[[-0.10980527,-0.3337184,-0.3584016],[0.9580386,7.071072,-3.0176063],[-0.107470274,-0.9433109,-0.22958979]]],[[[0.07093054,-0.0389073,-0.9403256],[-0.26530766,-0.17255151,1.0850189],[-0.53659856,0.18413627,1.1238999]]],[[[0.11523743,0.19815294,0.8983409],[0.36052555,-0.16580635,-1.6641306],[0.46769142,-0.16563788,-0.65199876]]],[[[0.08424269,-0.15730146,-0.030237777],[-0.09409621,-0.52200925,-0.2492874],[-0.050761703,-0.21467479,-0.1994156]]],[[[0.16738638,-0.33094314,-0.7515783],[-0.41186857,-0.062106762,1.1415322],[-0.41789863,0.40529138,0.5567802]]],[[[0.8343509,-0.34577966,-0.614894],[4.1315775,-0.2908592,-3.7159169],[0.8059671,-0.23791644,-0.52018285]]]],"info":{"o_pg":1,"i_pg":1,"s":[1,1],"k":[3,3],"i":[32,112,112],"o":[32,112,112]},"bias":[-0.011896357,0.93304044,0.009595871,0.41822723,0.26109436,0.83761114,0.87358546,0.40920448,3.7314858,-0.004669015,0.33340126,0.32642463,0.8085326,-0.41233096,-0.0056712274,-0.005528218,0.00833052,0.013608518,0.007870175,0.07797346,-0.28764954,1.5629886,0.87898684,0.0012245276,0.7594964,-0.28007662,-0.36550182,0.87958586,0.6737195,0.32132018,0.9702557,-0.20297691]}},"2":{"ReLU6":{"input_shape":[1,32,112,112]}},"9":{"ReLU6":{"input_shape":[1,96,56,56]}},"7":{"ReLU6":{"input_shape":[1,96,112,112]}},"8":{"Convolution":{"w":[[[[-0.24931404,-0.4311515,-0.23095186],[-0.49903297,-0.50164586,-0.3531095],[-0.10337482,-0.31417546,-0.10519878]]],[[[-0.41798663,-0.21486698,-0.0041944017],[-0.6274934,-0.2459263,-0.01584889],[-0.52342105,-0.47226068,-0.15527008]]],[[[-0.61808985,-0.25237936,0.3042162],[0.9279807,2.0083098,0.898996],[-0.11111415,-0.7455575,-1.9068536]]],[[[0.17672609,0.30656078,-0.050707508],[0.27853835,0.71064764,0.016713588],[0.054784175,0.19546817,-0.12269122]]],[[[-0.23528151,-0.7841182,-0.46084082],[-0.30988142,-0.36464894,-0.042829383],[0.4460025,1.3450724,0.53348374]]],[[[0.12647557,1.0185466,0.88058776],[-0.28489357,-0.3562546,0.2844068],[-0.3827941,-0.73836935,-0.4638421]]],[[[-0.009056626,-0.12038996,-0.15819272],[0.08178894,-0.34835136,-0.4202859],[0.08670422,-0.3208055,-0.4225348]]],[[[-1.0950439,0.44510102,-1.0040823],[-1.0337051,1.1721456,-1.183868],[-1.2858204,0.8152806,-0.9583851]]],[[[0.12113607,0.23003912,0.1713911],[0.21565165,0.5651939,0.43535697],[0.1151928,0.31824574,0.25914145]]],[[[-0.61475426,1.2672889,-0.40485597],[-0.20710802,0.7060279,-0.41751954],[0.8266669,-2.0149953,0.778565]]],[[[0.08318978,0.06358956,0.044783574],[0.28382188,0.40604362,0.2576704],[0.25118592,0.46256635,0.23822255]]],[[[-0.11964761,-0.44969532,-0.51840836],[-0.06697285,-0.6167144,-0.5771951],[0.026097761,-0.030231789,-0.11393785]]],[[[-0.9879989,1.0646021,-0.22142659],[2.1053364,-3.2987802,1.1115768],[-1.1153505,2.2977595,-1.0290978]]],[[[-1.0559661,-0.13228352,0.79187256],[-2.50047,3.2821546,0.36911705],[0.6058704,2.2655454,-1.1961086]]],[[[-0.38470936,-0.8050008,-0.5913457],[0.8437876,3.1461332,0.72387064],[-0.32919633,-2.2484865,-0.07935281]]],[[[-0.17839976,-0.25271448,-0.065493],[-0.46420947,-0.5402934,-0.24602593],[-0.24694529,-0.49642226,-0.23549022]]],[[[-0.79639006,-0.7892297,-0.25854102],[-0.14960566,0.4009447,0.776367],[0.10595802,0.53383327,1.0349811]]],[[[0.27159786,0.54287905,0.19783235],[0.36481324,0.34967226,0.03559912],[0.16194405,0.27001396,0.12532493]]],[[[-0.027923252,-0.24762888,0.043583423],[0.039479684,-1.0918564,-0.21262798],[0.044229187,-0.46237057,0.16150005]]],[[[-0.042293716,-0.24201307,-0.18154436],[-0.22530869,-0.8037421,-0.5754424],[0.04773363,-0.56196105,-0.3537627]]],[[[0.24320686,0.28437304,0.02079763],[0.37169802,0.74313456,0.03723034],[0.23350814,0.24180532,-0.08571983]]],[[[-0.40983173,-0.10390364,0.6572536],[-0.45096463,-0.9792687,1.5275981],[-0.079587355,-0.9002616,0.7824273]]],[[[0.6517254,-1.7021314,0.9322876],[-1.8275381,2.9623353,-1.0044008],[1.0959258,-1.1353339,0.20003763]]],[[[-0.2592146,0.38945997,-0.13836937],[0.5783835,-3.0680556,2.451373],[-0.31047007,2.6560185,-2.229432]]],[[[-0.28627336,-0.47765154,0.5440358],[0.2797855,-0.74103945,-1.4424397],[0.26151508,1.2499754,0.31042418]]],[[[0.03681129,0.15382966,0.07488525],[0.13765705,0.45874867,0.21392195],[0.20004109,0.36195433,0.16510159]]],[[[0.031190775,-0.25711256,-0.0979382],[0.7261523,1.3419833,0.73603],[-0.12941092,-0.27030832,-0.029053219]]],[[[0.515676,1.2781312,1.3629886],[0.45771703,1.4240017,1.813198],[-0.16168214,0.832018,1.026221]]],[[[0.28599918,0.5247643,0.23118138],[0.33562616,1.1373442,0.41959846],[-0.18563445,0.09930426,-0.41561508]]],[[[-0.7230026,1.8013449,-0.7290584],[1.6682746,-1.4000851,-0.42957383],[1.2294242,-3.6629639,2.2051728]]],[[[-0.20281644,-0.5042314,-0.3130059],[-0.4718834,-0.6018836,-0.45483506],[-0.21522681,-0.3897794,-0.10414126]]],[[[1.0495813,-0.5087614,-0.5154296],[-0.43255076,3.4671345,-1.0715903],[-2.3666954,0.6609138,1.5141894]]],[[[-0.21384917,0.5211647,-0.22606489],[-0.6157764,1.7337697,-0.3582694],[-0.2155779,0.9248628,-0.23702154]]],[[[-0.031083211,-0.3998293,-0.3911079],[-0.10286772,-0.4450176,-0.28012446],[0.001277946,-0.055616032,-0.022957819]]],[[[-0.18257701,-0.27734876,-0.11748423],[-0.20553228,-0.3506113,-0.134594],[-0.09694729,-0.12330373,-0.1035058]]],[[[-0.11040791,0.3235618,-0.18750687],[-0.3883733,1.338172,-0.674228],[-0.34583846,1.1472319,-0.6758546]]],[[[-0.12741318,-0.18721052,-0.09037676],[-0.110533595,-0.17428227,-0.022242885],[-0.18060842,-0.19327082,-0.086861394]]],[[[-0.31327415,-0.314047,0.16531776],[-0.6673212,-0.5212608,-0.1152262],[-0.4959606,-0.52348495,-0.011679191]]],[[[-0.608999,1.2833475,-0.58544546],[1.2953612,-2.8971863,1.398595],[-0.54195654,1.1477243,-0.62625295]]],[[[0.023014268,0.16800418,0.04434344],[0.036169387,0.2632283,0.17326762],[0.08451641,0.3290134,0.26036316]]],[[[-0.091858186,-0.19943574,-0.005031509],[-0.39116123,-0.43515405,-0.17877558],[-0.26471627,-0.44469833,-0.10641688]]],[[[0.41632167,0.3407189,0.14011239],[0.31065917,0.63100445,0.08386597],[0.22346976,0.41565543,-0.15214445]]],[[[-0.14188069,-0.8710821,-0.63736194],[0.701954,0.10672913,-1.1789508],[-0.1530891,1.3279585,0.39482924]]],[[[-0.21941826,-0.7998034,1.0233961],[-0.23644748,-1.2667797,2.180981],[0.084770225,-1.0962187,1.3280522]]],[[[0.7823028,-0.54905677,-0.16059014],[1.8206208,-0.9589783,-0.25321275],[0.8636686,-0.51075524,-0.2802433]]],[[[0.10952027,0.21731561,0.06457873],[0.19856483,0.40240878,0.3782135],[0.09346269,0.21547408,0.24212751]]],[[[-0.10688184,-0.28670946,0.13242958],[-0.4873449,-0.92356735,0.14254417],[-0.28221282,-0.71397924,-0.10697247]]],[[[0.16559605,-1.5831188,1.0875165],[2.0579066,-0.58789897,-1.7938395],[-1.9477286,2.9286146,-0.285033]]],[[[0.45941782,-1.4335124,-0.061638936],[-1.9816768,-1.2656007,1.7304693],[0.6017727,2.5773716,-0.49706724]]],[[[0.2257096,-0.3181479,-0.21585433],[2.0928855,-3.618484,1.3291401],[2.1135888,-4.0675564,1.772215]]],[[[0.7731226,0.8723363,0.36005178],[0.8326616,1.4971747,1.0415449],[0.4468177,0.8547333,0.6583462]]],[[[-0.11095274,-0.25777242,-0.28248817],[-0.2569144,-0.41446084,-0.3279156],[-0.19305448,-0.24326508,-0.06941381]]],[[[-0.107254624,-0.15028575,-0.33170462],[-0.2947518,-0.26891345,-1.3200942],[-0.12412982,-0.1881296,-0.2750404]]],[[[0.3695755,0.58265954,0.079321675],[-0.49159074,0.859047,0.6823243],[-0.17908247,0.018830076,0.37597415]]],[[[-0.14936203,-0.11382874,0.05985284],[-0.3427435,-0.29130247,0.10227312],[-0.19921705,-0.19909152,0.031672463]]],[[[0.49206707,2.287851,0.20052515],[-0.64066005,-4.113584,-0.63951176],[0.2740177,1.8492938,0.40632454]]],[[[0.030611895,0.17712504,0.18148795],[0.24124967,0.43647313,0.32670605],[0.18476698,0.39023575,0.11823898]]],[[[-0.12293793,-0.310949,-0.11424325],[-0.23757723,-0.62387127,-0.15663894],[-0.06513362,-0.122514986,-0.0018373592]]],[[[-0.08489463,-0.7046293,0.65955275],[0.09240832,-1.3377656,1.3605453],[-0.018007806,-0.44642243,0.6338744]]],[[[0.15822911,0.5145762,0.11659388],[0.16505544,-0.23343995,-0.3574345],[-0.23973031,-0.7189255,-0.9723441]]],[[[0.02220703,0.08862837,0.12246211],[0.06439176,0.38263005,0.3271289],[0.058727253,0.19161803,0.25628233]]],[[[0.09915697,0.15277857,0.115058],[0.13406736,0.423285,0.29333404],[0.09045835,0.19787523,0.180087]]],[[[-2.2125902,2.5149527,-0.4364103],[3.0896099,-4.153306,1.0020103],[-0.7046221,1.2738303,-0.4670263]]],[[[0.0018810545,-0.17039298,-0.6906739],[0.23266752,-0.25629583,-1.1166184],[0.35859933,-0.45895436,-0.510196]]],[[[-0.36127752,-0.50453174,-0.21233065],[-0.6327205,-0.75847775,-0.42942894],[-0.33038843,-0.4637051,-0.12351352]]],[[[-0.8208292,-0.10650125,0.17686743],[3.1035342,1.4113501,0.031870898],[-2.434249,-1.39125,-0.19415167]]],[[[-0.7754221,-1.6937107,0.005637806],[0.35854927,1.9245825,0.20138197],[0.11203259,-0.26660255,-0.15199707]]],[[[-0.06584379,-0.21382035,-0.11049891],[-0.19546571,-0.35126126,-0.36191776],[-0.2442099,-0.31442714,-0.39269727]]],[[[0.18850832,0.29501963,-0.4148384],[0.40876526,0.36494535,-1.0165207],[0.083972,0.43625325,-0.72621167]]],[[[0.5402811,-0.43889412,-0.27905637],[1.2705563,-0.9743029,-0.51628524],[0.7483663,-0.3073407,-0.21193422]]],[[[0.28279337,0.4956638,0.27948228],[0.4553545,0.45171893,0.09428676],[0.12002033,0.15673926,0.00019037843]]],[[[-0.08716905,-0.20094013,-0.040960465],[-0.31374523,-0.6770528,-0.15338549],[-0.24072814,-0.437366,-0.17568201]]],[[[0.61345637,0.1948248,0.72410035],[2.858495,4.765548,3.004888],[-3.4204023,-6.358054,-2.8388815]]],[[[-0.17152862,-0.14806634,0.007252112],[-0.46226257,-0.4390725,-0.047703013],[-0.09515366,-0.30018696,0.078734815]]],[[[0.66082984,-0.8529446,-0.5293294],[-1.3515943,-0.66040045,0.9984702],[0.3380709,1.2609509,0.3162809]]],[[[0.10476769,-0.13578847,-0.14494577],[-0.13801384,-0.5639532,-0.27415043],[-0.30018666,-0.42099503,0.089327864]]],[[[-0.30067477,-0.64338887,-0.30049646],[-0.046488825,-0.5964735,-0.2857839],[0.3249306,0.43461397,0.24078321]]],[[[-0.09840934,-0.10274831,-0.12202129],[-0.034687657,-0.075511165,-0.2036677],[-0.12200757,-0.17272088,-0.17032005]]],[[[0.62440485,0.9560169,0.60711133],[-0.8429863,-2.04111,-0.79482496],[0.27423796,0.8015935,0.28619707]]],[[[0.40742937,0.037987664,-0.53466994],[1.2734383,-0.10063056,-1.0294663],[0.863507,-0.034540012,-0.5646546]]],[[[-0.15069184,-0.38542175,-0.20470667],[-0.5504974,-0.6348461,-0.49203178],[-0.29670012,-0.47429076,-0.27435243]]],[[[0.18762036,0.19521649,0.033868227],[0.18922262,0.22353745,0.057456803],[0.13770446,0.1950353,-0.111599624]]],[[[-0.40778986,0.06209242,0.088821895],[-0.7808642,-0.10965927,0.24015081],[-0.71988595,-0.07429614,0.21778916]]],[[[0.11828224,0.1576995,0.11842976],[0.20140249,0.43579787,0.3048273],[0.13109316,0.27181485,0.19689384]]],[[[-0.095065534,-0.28148967,-0.1953177],[-0.20489219,-0.6782896,-0.2898594],[-0.13197261,-0.3584979,-0.24283496]]],[[[0.08292612,0.19209006,0.053952366],[0.15875892,0.5129227,0.2999244],[0.17362103,0.36670274,0.24417831]]],[[[-1.4402646,0.5895151,0.5825583],[-0.14968872,2.9787803,-1.2476019],[1.7162124,-1.1722854,-1.3966188]]],[[[0.049729634,0.18611658,0.12094789],[0.15168852,0.41959342,0.27480268],[0.08298033,0.27761418,0.16829671]]],[[[-0.053906944,-0.10761166,-0.026556456],[-0.17319144,-0.20392755,-0.14039348],[-0.15743153,-0.18816233,-0.21580143]]],[[[0.3469035,-0.11033561,-1.5160633],[0.064878695,1.9249165,0.10868252],[-1.0476971,-0.1716431,0.60246754]]],[[[0.27317613,-0.30823594,-0.050774198],[-1.3004098,3.268962,-1.8972061],[1.033733,-2.8501098,1.8046896]]],[[[-0.35500363,-0.4127664,-0.17755757],[-0.47536638,-0.6757735,-0.39036834],[-0.14268161,-0.45017126,-0.26606587]]],[[[-0.0074145594,-0.11626596,-0.11577224],[-0.029202672,-0.22792073,-0.31045347],[-0.024759766,-0.25365472,-0.25922334]]],[[[0.1719584,0.23758724,-0.016522933],[0.30089146,0.34939483,-0.0030359812],[0.1904414,0.17625992,-0.03255089]]],[[[-0.26395527,-0.31402227,-0.1298021],[-0.8717431,-0.7396138,-0.08405662],[-0.20497653,-0.11871438,0.1592601]]],[[[0.41875812,1.5574883,1.0970978],[-0.38319525,-1.5725725,-0.979322],[-0.205906,-0.30927828,-0.028186435]]]],"info":{"o_pg":1,"i_pg":1,"s":[2,2],"k":[3,3],"i":[96,112,112],"o":[96,56,56]},"bias":[0.33979982,0.38681754,-0.114061646,0.008712411,0.081411354,0.09081116,0.9615986,-0.16994947,0.030649573,0.010993168,-0.0369751,0.45219982,0.015243125,-0.5778051,-0.06816733,0.40922508,-0.0009201206,-0.6747136,0.28678992,1.0592781,-0.1850006,0.007796826,-0.048448656,-0.019307362,0.026886273,0.03166406,-0.20478521,-0.00049535185,-0.5792262,0.0068133036,0.44370076,-0.41430014,-0.20984511,0.8160216,1.2644045,-0.06627816,0.5209949,0.4530513,0.036952585,0.020733848,0.45921195,-0.48875692,0.13220924,-0.21964848,-0.128472,0.032789588,0.68676424,-0.010252092,-0.03549023,0.12263311,0.015412217,0.9580054,0.51405376,-0.0145100355,0.7459688,-0.03621795,0.010558099,1.6044662,-0.021460176,0.25860515,0.003514722,0.019054577,0.020562166,0.76893437,0.42266247,0.05107396,0.09045309,0.43853015,0.17918773,0.028198903,-0.26127037,0.36323357,0.16426177,0.5720216,-0.032975305,0.76411355,0.21381894,0.4470478,0.054453913,0.09952931,0.3805179,0.056346342,0.45544147,0.01236707,0.4648776,0.03793034,-0.11293266,0.032332987,0.2962898,-0.032833572,0.0031260788,0.45129806,1.548107,0.017485924,0.8702349,0.043289274]}}}
